tree
version=v4
num_class=1
num_tree_per_iteration=1
label_index=0
max_feature_idx=26
objective=lambdarank
feature_names=template_in_firm_templates firm_is_shared_infra firm_is_multi_domain investor_has_german_char investor_has_nfkd_normalized investor_has_nickname investor_has_multiple_first_names investor_has_middle_name investor_has_multiple_middle_names investor_has_multiple_last_names template_support_count template_coverage_pct template_in_mined_rules template_max_rule_confidence template_avg_rule_confidence template_uses_middle_name template_uses_multiple_firsts template_uses_multiple_middles template_uses_multiple_lasts template_firm_support_count template_firm_coverage_pct template_is_top_template template_name_characteristic_clash firm_num_templates firm_num_investors firm_diversity_ratio firm_is_single_template
feature_infos=[0:1] [0:1] [0:1] [0:1] [0:1] [0:1] [0:1] [0:1] [0:1] [0:1] [1:31632] [1.177038336138608e-05:0.37232076648736451] [0:1] [0:0.96882040441687756] [0:0.96882040441687756] [0:1] [0:1] [0:1] [0:1] [0:37] [0:1] [0:1] [0:1] [1:21] [1:1399] [0.0053248136315228968:1] [0:1]
tree_sizes=1550 7050 6997 7005 7008 6990 7009 7032 7072 7053 7095 7122 7077 7128 7102 7109 7130 7100 7121 7099 7120 7119 7114 7151 7162 7175 7183 7108 7170 7221 7157 7183 7181 7159 7135 7168 7178 7218 7199 7219 7210 7179 7172 7191 7191 7263 7215 7220 7191 7190 7216 7258 7234 7263 7227 7225 7225

Tree=0
num_leaves=13
num_cat=0
split_feature=0 23 10 10 20 10 20 10 10 20 20 20
split_gain=1.39842e+06 6.80298 88.3575 431.635 40.0185 20.3752 90.1283 39.6159 19.6067 10.8037 6.02765 0.0531501
threshold=1.0000000180025095e-35 2.5000000000000004 396.50000000000006 709.00000000000011 0.35000000000000003 5437.0000000000009 0.072751322751322761 19945.000000000004 19945.000000000004 0.042572463768115944 0.060661764705882359 0.054093567251461992
decision_type=2 2 2 2 2 2 2 2 2 2 2 2
left_child=-1 -2 -3 -4 5 -5 7 9 -8 -7 11 -9
right_child=1 2 3 4 -6 6 8 10 -10 -11 -12 -13
leaf_value=-0.38852691519625626 0.38733782131336891 0.38632412829556428 -0.33907262999052895 0.37847588954944916 0.37706963916658881 0.029289783284153759 0.31850309683822708 0.022586339306680834 0.37458082793798153 -0.27791761221655675 -0.064346155290555998 0.26130570566385042
leaf_weight=175359.32194392735 133884.31176162383 35480.958954313508 29.938125120417681 690.11656968167517 4330.3164359931834 4.943625219631941 1519.7435921765864 0.9182993976864936 518.80858138436452 10.972540264250709 0.8668484247755267 9.2352168154902756
leaf_count=80425111 266227 107050 4500 14766 50272 126 8758 1226 17825 670 683 295
internal_value=5.44863e-06 0.386068 0.382038 0.360444 0.363607 0.341887 0.328889 -0.0208759 0.333545 -0.196737 0.216862 0.253002
internal_weight=351840 176481 42596.8 7115.86 7085.92 2755.61 2065.49 26.9365 2038.55 15.9162 11.0204 10.1535
internal_count=80897509 472398 206171 99121 94621 44349 29583 3000 26583 796 2204 1521
is_linear=0
shrinkage=0.194268


Tree=1
num_leaves=64
num_cat=0
split_feature=20 10 23 23 22 10 6 22 7 10 10 20 22 22 18 10 10 23 10 7 20 10 10 6 19 10 25 23 13 25 13 10 10 6 10 20 20 20 2 21 20 1 20 19 10 18 12 24 24 24 24 2 20 6 24 24 19 20 20 20 19 25 23
split_gain=2.07555e+06 80892.6 101830 8595.74 13980.7 5141.68 7418.93 8588.81 7206.37 5048.05 4947.52 10274.3 9591.15 4831.47 11913.7 5519.8 4816.98 4472.92 4183.41 3921.85 3318.78 3284.02 2712.88 3288.77 2547.48 2362.81 2174.97 1966.13 1934.94 1642.01 1617.72 1457.38 3835.79 1421.73 3261.32 1285.85 1547.03 1289.32 1603.77 1282.03 1605.14 1485.89 1259.99 1244.02 1085.38 1015.94 998.986 975.588 3184.18 937.329 1258.46 962.657 924.783 909.613 860.317 1151.53 822.835 783.462 780.623 660.414 1372.9 667.472 627.51
threshold=0.0021929824561403512 19945.000000000004 1.5000000000000002 3.5000000000000004 1.0000000180025095e-35 31094.000000000004 1.0000000180025095e-35 1.0000000180025095e-35 1.0000000180025095e-35 1478.0000000000002 396.50000000000006 0.97008928571428588 1.0000000180025095e-35 1.0000000180025095e-35 1.0000000180025095e-35 141.50000000000003 709.00000000000011 2.5000000000000004 1137.0000000000002 1.0000000180025095e-35 0.27619047619047626 1137.0000000000002 1137.0000000000002 1.0000000180025095e-35 2.5000000000000004 225.00000000000003 0.056301886792452842 2.5000000000000004 0.027206686479614203 0.40824915824915831 0.036158030346407105 141.50000000000003 118.00000000000001 1.0000000180025095e-35 1478.0000000000002 0.35000000000000003 0.29100529100529104 0.94097222222222232 1.0000000180025095e-35 1.0000000180025095e-35 0.16954022988505749 1.0000000180025095e-35 0.21111111111111114 2.5000000000000004 18.500000000000004 1.0000000180025095e-35 1.0000000180025095e-35 4.5000000000000009 3.5000000000000004 4.5000000000000009 2.5000000000000004 1.0000000180025095e-35 0.89871794871794886 1.0000000180025095e-35 9.5000000000000018 7.5000000000000009 8.5000000000000018 0.95619047619047626 0.21111111111111114 0.91287878787878796 12.500000000000002 0.23303167420814483 2.5000000000000004
decision_type=2 2 2 2 2 2 2 2 2 2 2 2 2 2 2 2 2 2 2 2 2 2 2 2 2 2 2 2 2 2 2 2 2 2 2 2 2 2 2 2 2 2 2 2 2 2 2 2 2 2 2 2 2 2 2 2 2 2 2 2 2 2 2
left_child=-1 3 -3 10 9 6 7 17 26 24 13 12 16 14 15 27 -12 47 -6 33 -19 -21 28 -24 31 -17 -7 -2 42 43 -29 32 44 -18 -35 36 -9 -37 -39 40 -10 49 -14 54 45 -5 -23 48 -4 50 -41 -52 -25 -11 55 -28 -30 -40 -27 61 -61 -45 -15
right_child=1 2 5 4 18 8 -8 35 39 53 11 -13 22 62 -16 25 19 20 -20 21 -22 46 23 52 -26 58 29 30 56 -31 -32 -33 -34 34 -36 37 -38 38 57 41 -42 -43 -44 59 -46 -47 -48 -49 -50 -51 51 -53 -54 -55 -56 -57 -58 -59 -60 60 -62 -63 -64
leaf_value=-0.26954928854820709 0.26192552476510483 0.26947750243268803 -0.15681319437295185 -0.018387366631231777 0.22444016958167429 0.25929465739978763 0.18982384285105397 -0.32280759717451035 -0.35952638227149536 0.20587681545950798 -0.36476156331090676 0.26948890311763141 -0.35898208247237429 0.27612555521457144 -0.36804743900981868 -0.3666363188326216 0.24286285914550054 -0.35650994163906674 -0.30691770121249928 -0.3652833273654274 0.17757022792466282 0.1510226604227371 -0.36780158714145683 -0.16557454589723514 0.15497258429901647 -0.3579823985527083 -0.35905129871191782 0.035151729372036304 -0.36452358950115649 -0.35556428910552706 0.21893796707411389 -0.32575282030872227 0.23686604860175603 0.2342923643121978 -0.3611727026015229 -0.321847309033296 0.10883561749134163 -0.3619842345282453 0.21493326520420017 0.007095616573711193 0.19637902459566242 -0.25316204474447523 0.15976493453722665 -0.36694355654248845 -0.34308112602380536 -0.36514654856747841 0.010392122933019218 -0.17979590907668699 0.16142496112891622 0.041421136343608563 -0.36681933939953854 0.0040760270738513082 0.27572382919301158 -0.35100721505714066 -0.35822911879007763 0.20473770544788999 0.020443091310573393 -0.35314101157314948 0.096721026458903278 0.096874562425696906 -0.27976254611736617 -0.23432212562930882 0.25811559888114671
leaf_weight=533347.63425946387 27043.64259153622 40421.624359607697 3127.7577071785927 1090.3880188939947 44916.244736936525 253.03956936718896 3171.1326273286249 495.26790407579392 204.96193942450918 2381.8647724623443 530.10222789004911 64224.949949502945 167.962399573531 267437.29278582335 1204.9892064407468 616.20463493466377 26631.759546587244 433.67470412584953 506.7917150373105 466.3137368708849 4181.0570344841108 11818.526577233337 1627.3174198158085 252.84848410636187 908.65920358497533 136.59477284550667 155.89982485771179 2559.4983144327998 472.36799515970051 6092.1352584455162 4503.1220225244761 1599.3554556746822 815.83607056643814 1049.9251098036766 441.44035415351391 6041.3407630347647 648.10439683496952 421.57529241126031 456.82858508825302 1265.1147136688232 1145.3720433823764 1413.2983357082121 2178.6422162461095 2028.2157825169852 1267.3044848591089 386.85001392755657 2014.2807212546468 3206.6664881110191 1623.1140866279602 2470.0052770636976 816.9919468536973 335.66500188782811 433.46724390983582 100.41258590406505 196.19282378384378 533.43880973756313 312.71627470105886 96.647137895226479 1470.8396002352238 522.68656015396118 879.99497992731631 3698.4076767377555 89190.933541044593
leaf_count=80425590 11985 14879 6085 2594 36911 201 3042 3260 1762 5509 3520 23641 969 105452 4183 1956 17327 3530 3162 1940 6593 13251 6782 784 1784 492 582 4028 2739 27256 3143 7750 632 715 1897 19502 1116 1071 293 2230 1466 5493 2677 10880 4513 1705 3984 6750 1414 5777 3436 974 196 1041 1838 680 662 249 1719 681 3212 14262 43762
internal_value=4.98224e-06 0.222177 0.0558752 0.24778 0.177733 -0.132181 -0.0728953 -0.113112 -0.196534 -0.0387399 0.255239 0.221095 0.156856 0.264992 0.201952 0.2209 0.186107 -0.017392 0.218483 0.193027 0.12709 0.114278 -0.0738386 -0.225195 -0.129416 -0.0607281 -0.273599 0.239267 0.038139 -0.283235 0.152397 -0.179587 -0.11361 0.233043 0.0574963 -0.260505 -0.0786536 -0.290072 -0.0926372 -0.0518274 0.111113 -0.0867988 0.122037 -0.228092 -0.218002 -0.110003 0.130554 -0.101204 -0.0480402 -0.0385118 -0.120099 -0.259203 0.113124 0.182773 -0.021667 0.0757743 -0.211918 0.113749 0.0572164 -0.253704 -0.13955 -0.281537 0.271625
internal_weight=1.18044e+06 647096 86336.2 560759 53973.7 45914.6 23903.2 20732 22011.4 8550.67 506786 112623 48397.7 394163 37534.9 36329.9 42952.3 12572.3 45423 42422.2 4614.73 14299.1 5445.32 2313.63 6068.39 2223.64 14360 34106.3 3131.69 14107 7062.62 5159.73 3560.38 28123.1 1491.37 8159.76 1143.37 7016.39 975.051 7651.41 1350.33 6301.08 2346.6 8014.84 2744.54 1477.24 13832.8 7957.54 4750.87 4887.78 2417.77 1152.66 686.316 2482.28 885.531 689.339 785.084 553.476 1607.43 7129.3 1402.68 5726.62 356628
internal_count=80897509 471919 148514 323405 65601 133635 52905 49863 80730 25528 257804 81084 57443 176720 27506 23323 42634 24372 40073 39114 10123 19175 14809 7762 18978 4167 59592 19156 7047 59391 7171 17194 9444 19939 2612 25491 4376 21115 1613 21138 3228 17910 3646 32135 8812 4299 17235 14249 7499 12417 6640 4410 980 6550 3100 1262 3401 542 2211 29035 3893 25142 149214
is_linear=0
shrinkage=0.184555


Tree=2
num_leaves=64
num_cat=0
split_feature=0 26 10 20 25 20 20 5 25 10 14 13 20 25 20 24 10 14 9 24 14 10 9 17 8 8 14 15 25 9 10 25 24 20 10 9 25 9 20 25 13 25 20 10 25 14 10 25 24 10 3 19 20 9 25 25 20 25 10 10 3 20 3
split_gain=1.75491e+06 1521.7 612.523 759.579 1442.59 867.645 501.446 1003.13 563.005 557.876 495.778 397.451 396.652 332.731 326.916 309.891 427.508 278.503 9365.44 1008.79 277.51 1658.66 339.03 264.405 3710.72 432.77 347.486 651.516 211.546 187.018 217.578 573.124 154.347 150.597 149.374 294.313 179.567 234.108 143.515 596.981 434.895 140.913 239.396 133.499 125.645 136.149 273.945 121.07 418.183 113.644 690.869 413.534 174.442 129.883 550.138 144.356 108.524 327.05 102.693 545.607 221.551 135.198 102.557
threshold=1.0000000180025095e-35 1.0000000180025095e-35 546.50000000000011 0.14835164835164838 0.30384615384615393 0.072751322751322761 0.14835164835164838 1.0000000180025095e-35 0.43650793650793657 5437.0000000000009 0.67425960673786112 0.019855617901123179 0.5634920634920636 0.55050505050505061 0.044466403162055343 9.5000000000000018 6.5000000000000009 0.69232923723946493 1.0000000180025095e-35 12.500000000000002 0.43766672472990181 102.00000000000001 1.0000000180025095e-35 1.0000000180025095e-35 1.0000000180025095e-35 1.0000000180025095e-35 0.87338155944862195 1.0000000180025095e-35 0.18898809523809526 1.0000000180025095e-35 5437.0000000000009 0.12372448979591838 9.5000000000000018 0.16333333333333336 2.5000000000000004 1.0000000180025095e-35 0.31534090909090912 1.0000000180025095e-35 0.35000000000000003 0.7238095238095239 0.027206686479614203 0.09449404761904763 0.026671408250355622 3.5000000000000004 0.85416666666666685 0.43766672472990181 97.500000000000014 0.36931818181818188 8.5000000000000018 31094.000000000004 1.0000000180025095e-35 2.5000000000000004 0.94590643274853814 1.0000000180025095e-35 0.48333333333333339 0.39444444444444454 0.19523809523809527 0.6515151515151516 1478.0000000000002 1137.0000000000002 1.0000000180025095e-35 0.1012820512820513 1.0000000180025095e-35
decision_type=2 2 2 2 2 2 2 2 2 2 2 2 2 2 2 2 2 2 2 2 2 2 2 2 2 2 2 2 2 2 2 2 2 2 2 2 2 2 2 2 2 2 2 2 2 2 2 2 2 2 2 2 2 2 2 2 2 2 2 2 2 2 2
left_child=-1 2 3 4 15 10 7 8 58 -10 34 29 28 32 -12 -2 41 20 -19 -20 21 -18 -22 25 -25 -5 38 -28 -13 56 31 -31 -7 -30 35 -6 -36 -38 39 -27 -41 -17 -43 -34 45 46 -15 -35 -49 53 51 -51 -53 -14 55 -55 57 -8 59 61 -60 -4 -58
right_child=1 -3 6 23 5 13 11 -9 9 -11 14 12 49 44 -16 16 17 18 19 -21 22 -23 -24 24 -26 26 27 -29 33 30 -32 -33 43 47 36 -37 37 -39 -40 40 -42 42 -44 -45 -46 -47 -48 48 -50 50 -52 52 -54 54 -56 -57 62 -59 60 -61 -62 -63 -64
leaf_value=-0.22315053348289157 0.22243354259750348 0.22230342004735607 0.19098382952267509 0.2136232292315671 -0.070473141161412262 0.19106224671753705 -0.32346711644597526 -0.3219530890914678 -0.29943343236377856 0.12094240928950148 -0.1383117769161607 -0.21919408410140312 0.20584995401555969 0.12209194351957262 0.13766180401220074 0.21956902227952199 0.20037216853489223 0.2145808805735816 0.00055286059090565228 -0.28488798107511865 0.11150370267603762 -0.33217525059368203 0.22641817920974808 -0.34691231965445379 0.21815367888583123 0.21255733872334293 0.22559262802572663 -0.33840563882815844 -0.28570892901777961 0.21523836391970327 0.21803458409361573 -0.30926460595181299 0.084139448273464409 0.19562752902022099 0.12745530248551096 0.17560540866283125 -0.046369644801199462 -0.33874202493676558 0.19673657588145632 0.062695300870978243 -0.33742223386760273 0.037166907522234671 0.16004010934412774 0.16713952763055259 0.015797621766058593 0.16171467613913462 -0.12916551061721238 0.14746989448567893 -0.081035140331429709 -0.25461860071845305 -0.27039785086801732 0.1872423338231024 -0.19664628681936056 0.13050172245803981 -0.28090475476099608 0.23700858204853742 0.19579406743301339 0.19748603916457946 0.19234424892704741 -0.30288843072879262 -0.28447415783114488 -0.26223822273540925 0.1506654242209047
leaf_weight=560264.10422001046 24544.298161465733 171555.54195904732 467.89780410192907 216765.70934726915 333.86415352858603 16885.869817886502 47.702930428073159 146.81666769064032 162.76002280361718 227.47515087202191 135.98260187346023 44.834787874264293 11160.039605060651 1917.3350622837897 2469.1351283578551 1064.6064124697587 17553.658665300463 29280.591146399151 547.3210871219635 1244.922935407958 825.17400157771772 177.86855282844044 27987.275484187179 387.19717693328857 4122.2850140929222 657.16843296401203 122.62453079223633 120.66203784942627 20.708543147309683 222.78901891410351 17718.852244348265 84.955919713247567 702.08299541287124 1475.6330262599513 87.651991128921509 263.58710788842291 248.47292968613328 124.29942921362817 1565.267265278846 265.07820511888713 116.85628685122356 533.87728141027037 5993.878655014094 4524.2929276503273 257.53941608220339 3647.46039493836 139.84777895174921 7997.85956761532 251.39480546792038 63.672734961844981 105.61576090287417 3839.4499442465021 33.385376343969256 962.58136716636363 81.60967828752473 686.58735521207564 12910.970627658069 124.44616686413065 2165.028236082755 83.377086441614665 26.688894267193973 17.455887250136584 1855.1591705316678
leaf_count=80425111 9942 65810 2193 104572 1214 11091 606 3714 2171 2243 429 1607 22064 2242 3571 592 10191 15977 532 2610 4023 908 11723 943 1882 514 48 192 398 229 10014 3059 781 4282 98 512 823 278 836 279 379 899 4301 4805 490 3763 300 46793 2847 6796 9587 32213 1583 13641 6136 1980 17445 291 7836 1830 616 492 2182
internal_value=2.23858e-06 0.208323 0.202724 0.205486 0.195387 0.1624 0.186678 0.119827 0.140831 -0.0557623 0.0820023 0.190362 0.174357 0.172875 0.123049 0.204919 0.199862 0.203763 0.190763 -0.19793 0.212423 0.19495 0.223144 0.211859 0.169347 0.212728 0.14437 -0.0551666 0.146092 0.203312 0.215493 0.0681429 0.182824 0.14787 -0.0191694 0.0385798 -0.0937637 -0.146654 0.163071 0.111746 -0.062155 0.159895 0.150022 0.156069 0.135872 0.141277 0.104774 0.148921 0.140467 0.190658 0.164399 0.176351 0.183715 0.198833 0.153186 0.175352 0.188555 0.0486971 0.168666 0.101022 0.185984 0.17249 0.190171
internal_weight=1.16042e+06 600155 428599 365614 141491 31737.4 62985.7 3297.5 3150.68 390.235 3662.99 59688.2 26723.4 28074.4 2605.12 109753 85209.2 77616.8 31072.8 1792.24 46544 17731.5 28812.4 224123 4509.48 219613 2847.66 243.287 9790.43 32964.9 18026.6 307.745 22112.2 9745.6 1057.88 597.451 460.424 372.772 2604.37 1039.1 381.934 7592.36 6527.76 5226.38 5962.18 5704.64 2057.18 9724.89 8249.25 16932.9 4042.12 3936.51 3872.84 12890.8 1730.78 1649.17 14938.3 172.149 2760.45 568.731 2191.72 485.354 14766.1
internal_count=80897509 472398 406588 201740 92095 30397 204848 21095 17381 4414 6925 183753 149927 23472 4000 61698 51756 45964 19119 3142 26845 11099 15746 109645 2825 106820 2248 240 55927 33826 13302 3288 16677 54320 2925 1726 1199 1101 2008 1172 658 5792 5200 5586 6795 6305 2542 53922 49640 94000 50179 40592 33796 43821 21757 15621 20524 897 12967 4515 8452 2685 19627
is_linear=0
shrinkage=0.175327


Tree=3
num_leaves=64
num_cat=0
split_feature=20 23 10 23 24 9 14 10 13 10 10 23 13 5 20 20 20 22 10 20 24 24 9 5 24 24 5 20 23 20 24 22 3 24 20 21 20 23 10 13 24 22 10 10 10 10 13 22 6 10 10 10 10 13 24 24 20 24 14 22 14 9 20
split_gain=1.39658e+06 4070.53 1088.34 691.318 421.109 496.1 2787.06 2734.82 663.66 1720.31 1242.93 358.864 252.649 334.52 279.382 252.215 247.079 241.869 231.587 377.494 226.964 295.688 367.222 260.839 205.523 180.446 225.266 174.73 173.281 422.249 163.309 161.763 437.065 276.049 157.775 147.919 142.79 136.383 593.716 270.004 142.25 170.983 295.228 126.916 110.886 124.058 328.654 110.504 259.793 686.382 194.748 1065 574.605 337.112 108.835 106.143 101.657 101.447 94.9397 100.847 428.081 92.9175 88.7509
threshold=1.0000000180025095e-35 2.5000000000000004 1299.0000000000002 4.5000000000000009 9.5000000000000018 1.0000000180025095e-35 0.72029361150651183 5.5000000000000009 0.72029361150651183 97.500000000000014 921.50000000000011 5.5000000000000009 0.95210273012140767 1.0000000180025095e-35 0.43650793650793657 0.89087301587301593 0.35000000000000003 1.0000000180025095e-35 1.5000000000000002 0.29100529100529104 23.500000000000004 9.5000000000000018 1.0000000180025095e-35 1.0000000180025095e-35 25.500000000000004 5.5000000000000009 1.0000000180025095e-35 0.16954022988505749 3.5000000000000004 0.51000000000000012 11.500000000000002 1.0000000180025095e-35 1.0000000180025095e-35 14.500000000000002 0.86811594202898557 1.0000000180025095e-35 0.12132352941176472 1.5000000000000002 921.50000000000011 0.019855617901123179 2.5000000000000004 1.0000000180025095e-35 1299.0000000000002 2.5000000000000004 4.5000000000000009 3.5000000000000004 0.72029361150651183 1.0000000180025095e-35 1.0000000180025095e-35 28.500000000000004 118.00000000000001 18.500000000000004 73.000000000000014 0.027206686479614203 8.5000000000000018 3.5000000000000004 0.5634920634920636 17.500000000000004 0.38818008946191845 1.0000000180025095e-35 0.69232923723946493 1.0000000180025095e-35 0.19523809523809527
decision_type=2 2 2 2 2 2 2 2 2 2 2 2 2 2 2 2 2 2 2 2 2 2 2 2 2 2 2 2 2 2 2 2 2 2 2 2 2 2 2 2 2 2 2 2 2 2 2 2 2 2 2 2 2 2 2 2 2 2 2 2 2 2 2
left_child=-1 37 3 4 5 17 8 -8 9 16 -11 12 14 24 20 -15 -7 18 19 -3 21 25 23 -23 27 26 -4 -14 34 -30 -13 32 33 62 -29 -24 -10 -2 47 61 41 -41 -43 -33 45 -19 -47 48 50 -50 51 -39 53 -53 -45 -54 -20 -34 -6 60 -60 -40 -5
right_child=1 2 11 31 58 6 7 -9 36 10 -12 30 13 15 -16 -17 -18 44 56 -21 -22 22 35 -25 -26 -27 -28 28 29 -31 -32 43 57 -35 -36 -37 -38 38 39 40 -42 42 -44 54 -46 46 -48 -49 49 -51 -52 52 55 -55 -56 -57 -58 -59 59 -61 -62 -63 -64
leaf_value=-0.19597054430187991 0.19514439314857773 -0.31031212891651327 0.078330869277078524 0.093350438845345038 0.16839687483909702 0.15008788917533006 0.15557683338304376 -0.33027842024888554 0.11711194252253503 -0.23539015724520138 0.14716073180085965 -0.28567656889455617 -0.22282360346698438 -0.26979386134244771 0.15445511909327245 0.12657141305197309 -0.011881978381459879 0.16885143135525152 0.13596610503503478 0.16043446766431604 0.18998458450646163 -0.3030589726928884 0.097775401479279281 0.059678341558944227 -0.23066905552784722 0.14065746290387823 -0.27946617707854593 0.04294831484654818 0.1779770101190192 -0.25853115022906165 0.014133317707955879 0.098421353316294438 -0.025617753384818288 -0.22276823486618511 0.17820565259487972 -0.27758452997844119 0.18752960854300682 0.1877075152744673 0.16756670333628132 0.12685125433587455 0.15834415573321275 0.14057635472617683 -0.24876121749873331 0.115406437360024 0.18015131666696954 0.14242203327962355 -0.092319149245108256 0.19356057271462315 0.19668533908319483 -0.3123025011633237 0.19404324878874923 -0.32460059740157077 0.015824620165867883 -0.031721008767482364 0.1503651053695845 0.18616978154802019 0.18938016496031795 0.17614105525808568 -0.26497908195191133 0.18788369304088243 0.16353746197519134 0.18940721467488481 -0.24537622607282902
leaf_weight=522313.23467108142 159142.01258969301 78.306479809805751 1682.7607759563252 192.5792339919135 13112.209417862818 9632.7160899112932 613.02688288222998 666.83402300067246 892.57508218288422 595.47834396385588 384.26579713390674 52.204919285490178 41.853149614995345 123.53985935682431 7334.465319682844 65.10520979296416 267.93222987838089 6129.0680490313098 5275.9813799401745 106.13922345638275 735.96680918941274 152.3715449469164 461.43926298851147 82.793745677452534 49.176090301247314 2152.857815714553 46.071211117785424 1268.5940812639892 1097.5534226085292 61.352405722020194 459.31014420668362 2018.7359347380698 77.232647421769798 173.99149667768506 291.9707442605868 26.896506050601602 10785.17656314373 5816.5561206210405 9685.1793272923678 2002.7372066983953 11988.763483784627 119.29232909157872 91.675171131268144 3191.5424922723323 31734.732855414506 1565.5328121390194 181.96413326263428 188315.62789242761 223.69537425041199 104.12747556436807 14432.400947755203 141.38654034771025 142.60669028572738 437.28667176607996 12466.194169654336 355.0563113745302 1261.7908321758732 580.92141396342777 62.631754790432751 33266.316313416697 2461.4306100169197 13851.889607196674 19.871068049687892
leaf_count=80424926 65676 411 6973 2564 13298 6619 391 1395 609 2008 2108 1078 3430 5072 15862 507 291 3481 13650 97 1586 2696 2742 746 2513 6611 1091 16497 3496 3373 4941 3940 379 5807 1403 226 5580 2955 10058 12849 66070 191 5994 2942 16893 926 176 82335 93 1009 8969 410 291 1040 13382 341 1206 1119 2464 18652 4449 7826 639
internal_value=8.94932e-06 0.182528 0.159447 0.164251 0.168938 0.160619 0.141007 -0.0978261 0.154574 0.124869 -0.0853625 0.118517 0.122996 0.0793209 0.133299 -0.133232 0.145701 0.170696 0.141202 -0.0419761 0.104144 0.0902591 -0.00746487 -0.176592 0.0937724 0.108462 0.0681158 0.0999054 0.105222 0.153984 -0.0186245 0.134405 0.0702673 -0.0698427 0.0686807 0.0748241 0.182193 0.191262 0.188765 0.169438 0.151134 0.111852 -0.0302228 0.138177 0.175685 0.157599 0.11781 0.192235 0.180671 0.0330334 0.182933 0.159563 0.00732682 -0.105175 0.143274 0.137919 0.146395 0.152452 0.18086 0.185405 0.152465 0.180453 0.0573639
internal_weight=1.08314e+06 560832 153981 137795 119074 70171.5 23838 1279.86 22558.1 10880.4 979.744 16186.3 15674.8 2999.14 12675.6 188.645 9900.65 46333.5 6722.22 184.446 5341.16 4605.19 723.501 235.165 2810.5 3881.69 1728.83 2761.32 2719.47 1158.91 511.515 18721.1 1044.6 386.442 1560.56 488.336 11677.8 406850 247708 37739.5 14202.5 2213.7 210.968 17676.5 39611.3 7876.56 1747.5 209969 21653.1 327.823 21325.3 6892.89 1076.34 578.673 15657.7 497.663 6537.77 658.154 48902.6 35790.4 2524.06 23537.1 212.45
internal_count=80897352 472426 206319 125476 94704 55841 19001 1786 17215 11026 4116 80843 74824 36291 38533 5579 6910 36840 15364 508 22671 21085 6410 3442 30712 14675 8064 28199 24769 6869 6019 30772 10508 9010 17900 2968 6189 266107 200431 102988 85104 19034 6185 20264 21476 4583 1102 97443 15108 1102 14006 5037 2082 1450 16324 632 14856 1498 38863 25565 6913 17884 3203
is_linear=0
shrinkage=0.166561


Tree=4
num_leaves=64
num_cat=0
split_feature=0 23 23 10 22 18 10 23 13 10 18 22 10 24 5 2 20 13 25 10 20 14 20 19 25 24 18 10 10 25 20 24 20 10 20 25 13 10 20 5 2 24 2 10 19 25 19 25 20 2 23 19 14 20 23 20 25 20 22 10 14 23 24
split_gain=1.15417e+06 3134.18 927.875 938.691 242.856 484.205 193.308 1008.83 389.026 191.381 174.27 312.856 153.851 246.458 187.764 147.102 368.885 139.906 122.255 130.635 143.322 120.873 118.528 118.476 110.073 489.637 108.155 118.135 208.133 431.309 164.794 104.728 164.923 311.725 103.862 113.815 107.084 300.141 100.842 265.437 371.895 127.174 99.267 404.833 249.495 93.3033 92.2847 91.3542 214.666 112.729 106.963 91.1419 89.2416 109.776 86.7742 110.008 86.1794 84.1217 155.554 83.6693 78.1335 76.1101 72.2706
threshold=1.0000000180025095e-35 2.5000000000000004 4.5000000000000009 921.50000000000011 1.0000000180025095e-35 1.0000000180025095e-35 396.50000000000006 1.5000000000000002 0.72029361150651183 1299.0000000000002 1.0000000180025095e-35 1.0000000180025095e-35 31094.000000000004 4.5000000000000009 1.0000000180025095e-35 1.0000000180025095e-35 0.29100529100529104 0.72029361150651183 0.7238095238095239 225.00000000000003 0.085144927536231887 0.87338155944862195 0.29100529100529104 2.5000000000000004 0.17028985507246377 17.500000000000004 1.0000000180025095e-35 91.000000000000014 62.500000000000007 0.74166666666666681 0.12132352941176472 10.500000000000002 0.87750000000000006 19945.000000000004 0.033908045977011504 0.5634920634920636 0.72029361150651183 20.500000000000004 0.43650793650793657 1.0000000180025095e-35 1.0000000180025095e-35 15.500000000000002 1.0000000180025095e-35 118.00000000000001 1.5000000000000002 0.93750000000000011 1.5000000000000002 0.32666666666666672 0.12132352941176472 1.0000000180025095e-35 3.5000000000000004 4.5000000000000009 0.87338155944862195 0.29100529100529104 8.5000000000000018 0.072751322751322761 0.76388888888888895 0.25833333333333336 1.0000000180025095e-35 6.5000000000000009 0.38818008946191845 9.5000000000000018 4.5000000000000009
decision_type=2 2 2 2 2 2 2 2 2 2 2 2 2 2 2 2 2 2 2 2 2 2 2 2 2 2 2 2 2 2 2 2 2 2 2 2 2 2 2 2 2 2 2 2 2 2 2 2 2 2 2 2 2 2 2 2 2 2 2 2 2 2 2
left_child=-1 6 3 4 5 34 -2 -8 62 -10 18 -12 24 22 15 16 -15 26 19 54 21 61 45 -18 -5 38 27 28 30 -30 -6 32 52 -34 -3 36 -36 -38 41 51 -41 -26 44 -44 -37 -14 56 59 -49 50 -50 -40 -11 -54 -4 -56 -13 -17 -59 60 -19 -21 -9
right_child=1 2 10 12 17 -7 7 8 9 31 11 46 13 14 -16 57 23 47 -20 20 -22 -23 -24 -25 25 -27 -28 -29 29 -31 -32 -33 33 -35 35 42 37 -39 39 40 -42 -43 43 -45 -46 -47 -48 48 49 -51 -52 -53 53 -55 55 -57 -58 58 -60 -61 -62 -63 -64
leaf_value=-0.17732175889199428 0.1748119422699089 0.045438365848661608 0.11902699516857621 0.14915277905202418 0.11830162903331246 -0.22375822381477001 0.17662866245194325 0.14948278143112118 -0.22654091192794945 0.10173171877548136 -0.22674089086906335 0.12380633800117978 -0.23006043012772731 -0.26776980548695178 -0.20523054042697594 0.16975026365373658 -0.22518502887049982 0.066318867706720824 0.065007761325607816 -0.2500294288678151 0.078848573688811971 0.14940202340508499 -0.22330748641497744 0.09456226774185264 0.10165049679615636 -0.26877906433859255 0.16495145292060465 0.15972168759010508 0.15392240387531397 0.015303392194489092 0.15226190308753679 0.14639695835060842 0.16217698362036803 -0.23634125574426124 0.15307612252753452 0.13018467141444826 0.15733906639679252 -0.24281954662200445 0.15731203477319963 -0.27491224192770469 0.098034981832977375 -0.21462688704696864 -0.28051080642179976 0.10985382564182437 -0.26733433924291417 0.10313255492222398 0.18066363544792285 0.11729540765796971 0.15994004528395278 0.17922098998371902 0.12518729003489468 0.11528326941771953 -0.22211916830513534 0.13559349367957288 0.025325622403594462 0.14795884513917285 0.23191074537452602 0.10938945286537452 -0.21228695611576651 0.17270346375132634 0.15188864224952819 0.074436755375104163 0.16724578266739853
leaf_weight=476582.80118557205 248947.71892556828 328.25424737107824 9104.3510127182817 2665.2102964043152 4706.5349495410919 92.223557073622942 84762.40417766571 14344.899956563488 35.286318937316537 4469.6146658826619 55.434976878692396 4338.2366384575143 23.651458531618118 79.259147635428235 48.243064531241544 702.42627399181947 26.140978207811713 322.78858679533005 1946.6260845598008 76.961119793355465 1232.1326044410234 34.578870163590182 89.366887683281675 736.95692960801534 5234.3691662957426 79.524371667765081 10526.678803341463 11372.461767153931 1298.2564116418362 990.31630393862724 16339.419597212225 3767.0584378885105 97.258738592267036 90.892932210117579 5739.634718018584 2057.3185961116105 152.83694731071591 62.61609686492011 3000.596166708041 89.934453884372488 226.43817185796797 28.098176036495715 76.901347296312451 363.41061912756413 36.368436320219189 80.42032444907818 1096.943368492648 3177.2231168653816 15067.405903134029 6701.0628916025162 2715.2695092707872 2412.0958008687012 17.836271412670612 4365.4726173048839 567.84501467214432 267.65674393728841 195.21762170642614 405.29874273831956 37.407190601341426 23157.275240151212 1879.8572889864445 21.093252270715311 10534.241122822277
leaf_count=80424926 119412 1036 13238 6475 3348 5246 38462 14289 1552 42132 3080 4319 682 2193 3698 1872 851 274 4128 2631 10613 338 4760 9246 22338 1654 6537 10379 710 740 10292 14674 385 4091 7554 4796 277 2596 5172 1488 668 1361 1090 658 720 680 687 2249 9018 3395 2336 6901 486 21876 2508 530 150 3957 1967 13196 1355 332 8748
internal_value=1.28439e-05 0.164599 0.144594 0.149615 0.154953 0.129724 0.172248 0.167032 0.145449 0.122966 0.111922 0.135204 0.113746 0.0749177 0.0911547 0.0987832 0.0482313 0.157235 0.101891 0.108215 0.0619922 -0.0921212 -0.0941994 0.0823898 0.120022 0.112953 0.150665 0.146312 0.139748 0.0940823 0.144693 0.124006 0.114611 -0.0313347 0.133531 0.136912 0.148963 0.0385291 0.11582 0.130462 -0.0102816 0.0997852 0.108383 0.0395905 0.122737 0.0211948 0.13894 0.162827 0.156368 0.161417 0.154666 0.138691 0.117726 0.133918 0.114531 0.0651768 0.12868 0.135645 0.0804006 0.169844 0.139505 -0.180033 0.157032
internal_weight=990082 513499 142067 123130 107164 8909.56 371433 122485 37722.6 12843.4 18937.1 5685.83 15965.4 2229.17 2035.73 1987.49 842.357 98254.6 13251.2 11304.6 1364.77 132.633 193.439 763.098 13736.3 11071.1 45233.7 34707 23334.5 2288.57 21046 12808.1 9041.08 188.152 8817.34 8489.09 5955.09 215.453 10991.5 5729.06 316.373 5262.47 2534 440.312 2093.69 104.072 5630.4 53020.9 27661 24483.7 17782.7 5412.69 8852.92 4383.31 9939.85 835.502 4533.45 1145.13 442.706 25359.9 2202.65 98.0544 24879.1
internal_count=80897352 472426 206319 163765 87802 23973 266107 146695 108233 85196 42554 8236 75963 29906 23784 20086 12290 63829 34318 30190 13914 3301 6122 10097 46057 39582 32006 25469 15090 1450 13640 83644 68970 4476 18727 17691 10427 2873 37928 14229 2156 23699 7264 1748 5516 1362 5156 31823 16998 14749 11354 12073 64494 22362 16276 3038 4469 7796 5924 14825 1629 2963 23037
is_linear=0
shrinkage=0.158233


Tree=5
num_leaves=64
num_cat=0
split_feature=0 23 23 10 10 23 14 25 23 24 10 25 2 10 19 4 24 10 20 23 20 24 19 14 19 23 2 24 19 10 19 19 20 2 13 19 13 24 10 20 10 10 25 24 20 2 24 20 14 20 13 13 25 24 20 19 20 20 10 4 13 14 25
split_gain=961545 3211 1019.47 1014.23 304.532 1487.53 468.084 155.408 209.233 132.49 125.252 164.096 118.758 266.998 343.596 292.324 185.289 237.721 270.349 134.951 209.704 283.854 184.929 130.939 108.658 132.058 107.711 605.542 151.091 148.774 150.596 501.854 113.763 103.397 101.865 155.426 101.839 135.541 99.9947 92.7551 91.0937 90.1813 227.079 201.81 86.2646 85.4711 140.76 93.5791 88.3892 157.167 86.0234 81.916 79.9701 130.518 74.7934 98.9454 74.518 69.5341 68.5235 103.567 284.185 134.138 67.6181
threshold=1.0000000180025095e-35 2.5000000000000004 4.5000000000000009 921.50000000000011 396.50000000000006 1.5000000000000002 0.72029361150651183 0.25833333333333336 3.5000000000000004 4.5000000000000009 31094.000000000004 0.61250000000000016 1.0000000180025095e-35 19945.000000000004 2.5000000000000004 1.0000000180025095e-35 5.5000000000000009 1299.0000000000002 0.46886446886446892 3.5000000000000004 0.90238095238095251 6.5000000000000009 11.500000000000002 0.72029361150651183 1.5000000000000002 7.5000000000000009 1.0000000180025095e-35 3.5000000000000004 26.500000000000004 19945.000000000004 4.5000000000000009 10.500000000000002 0.35000000000000003 1.0000000180025095e-35 0.95210273012140767 1.5000000000000002 0.019855617901123179 7.5000000000000009 1.5000000000000002 0.072751322751322761 31094.000000000004 5437.0000000000009 0.74166666666666681 3.5000000000000004 0.12132352941176472 1.0000000180025095e-35 4.5000000000000009 0.078461538461538485 0.72029361150651183 0.12132352941176472 0.72029361150651183 1.0000000180025095e-35 0.21583850931677021 45.500000000000007 0.86811594202898557 7.5000000000000009 0.64583333333333337 0.29100529100529104 2.5000000000000004 1.0000000180025095e-35 0.036158030346407105 0.7728308871093853 0.087337909992372245
decision_type=2 2 2 2 2 2 2 2 2 2 2 2 2 2 2 2 2 2 2 2 2 2 2 2 2 2 2 2 2 2 2 2 2 2 2 2 2 2 2 2 2 2 2 2 2 2 2 2 2 2 2 2 2 2 2 2 2 2 2 2 2 2 2
left_child=-1 4 3 7 -2 -6 9 -3 33 34 24 62 13 16 15 -15 23 18 -18 20 21 -16 -21 41 25 44 28 -28 32 -29 -31 -32 -8 58 56 -36 37 -26 -10 -14 -17 42 -5 -43 -4 46 -40 -48 50 -50 -47 -35 53 -39 55 -34 57 -7 59 61 -61 -9 -12
right_child=1 2 10 12 5 6 26 8 38 -11 11 -13 39 14 19 40 17 -19 -20 22 -22 -23 -24 -25 36 -27 27 29 -30 30 31 -33 54 51 35 -37 -38 52 45 -41 -42 43 -44 -45 -46 48 47 -49 49 -51 -52 -53 -54 -55 -56 -57 -58 -59 -60 60 -62 -63 -64
leaf_value=-0.16318715649526541 0.16044433766490965 0.15000128135117163 0.1033073449874949 -0.24536604838808165 0.16258446140566629 0.10584201553533179 0.13522634314362789 0.14058736514445297 0.070820223737597401 0.14968937206641578 0.079419391714909152 0.10620852746361946 -0.16623081985639973 -0.22323345399984371 0.10653745154338609 0.10360344978485048 -0.23394141456193293 0.13470126449679176 0.074011297649907964 0.13506262212074596 0.12696316835057009 -0.054274160930464103 -0.16175186860158566 -0.2169946576297852 -0.25621542177231155 0.046549777611740839 -0.21725189023117061 -0.23637471670768284 -0.17872061604410822 0.17090011813875408 -0.21506155369882002 0.1300498737561406 0.076128230478093292 0.13215886877808927 0.080492545532960549 -0.23588828619710847 0.12914716673429577 -0.2633182687560563 0.061256887438447483 0.11455243893431293 -0.17378965572111274 -0.089593053840644032 0.12165634107824001 0.076033116430664668 0.073823963097528172 0.13158606252147403 0.073184232369579535 0.12771618420722386 0.067647719560057662 0.16384917058803014 0.17570063694878751 0.16017381734346547 0.097401571485414368 0.095521548376793247 0.10986180853829952 -0.19914082097342767 0.10945892009789684 0.14120932268675498 0.13929193027067793 0.013219816454820168 0.15831959298613932 0.020549599920352588 -0.21243826198379923
leaf_weight=425909.18715207442 223458.39881646261 27519.89308541175 8932.7330969213508 35.975520648062229 75828.610981225967 1566.6306773815304 1175.4391796542332 3265.5274155046791 884.52483717910945 10481.204655130394 20.223688289057463 110.73929143464193 23.044392829877324 179.12958790163975 386.04939173953608 135.59334001690149 77.151621388271451 3573.5747390321922 302.76497142203152 761.36299738124944 444.52769976016134 675.72324115410447 46.965375861851498 32.568686567246914 23.71434834972024 1385.1677347925724 108.91636938042939 20.000123094767332 43.036740217357874 1614.5330682536587 100.89517732895911 1033.4191319961101 4963.665182816796 3378.1858812943101 261.72102686297148 36.136699356138706 3582.2666472700657 34.50412579998374 1050.0003064610064 6546.7465126609895 28.929891834035516 214.42194470297545 813.79968299996108 691.39558557607234 3071.8701377777616 2843.1584496693686 834.17041122121736 5790.119370768778 974.0531110605225 641.49113126564771 1653.7533201714978 9408.8356045717373 714.19259812077507 51.941197917796671 1901.8043965776451 25.639448499307036 3464.863194280304 8270.218234134838 38205.121489613317 650.52167376130819 571.33605284616351 226.56477703899145 81.056412313017063
leaf_count=80424926 119412 24759 16149 483 38462 1172 3390 2125 1065 10792 131 1073 1958 7731 3117 374 2221 8180 876 2542 1185 10200 1860 685 98 6327 4758 489 1252 3590 4180 3899 46904 3098 1368 766 6428 296 1156 26598 2314 1361 2148 2130 5321 3609 1375 6706 974 588 1273 6331 2084 155 11676 880 4568 8549 33258 643 481 361 4492
internal_value=7.17915e-06 0.149408 0.129433 0.134737 0.157226 0.150734 0.125091 0.140314 0.136517 0.136844 0.0961663 -0.018342 0.0982343 0.0862748 0.0467749 -0.0926641 0.104513 0.122696 0.00952575 0.067613 0.0408268 0.00439216 0.117041 0.0641108 0.0975347 0.0907151 0.0992876 0.124431 0.0903032 0.138192 0.141288 0.0986457 0.0918345 0.140751 0.126899 0.0392545 0.118146 0.0699115 0.120403 0.113458 0.0515937 0.0698513 0.104943 0.0365849 0.0957924 0.123561 0.112781 0.120902 0.137006 0.106186 0.147964 0.15282 0.0809088 -0.0534825 0.084352 0.0745407 0.128848 0.135626 0.13714 0.119588 0.0813902 0.132835 -0.153286
internal_weight=891140 465231 130875 112867 334355 110897 35068.1 97897.3 70377.4 24080.8 18008.4 212.019 14969.7 8399.93 2658.28 343.653 5741.65 3953.49 379.917 2314.63 1506.3 1061.77 808.328 1788.16 17796.4 13389.8 10987.3 2877.76 8109.58 2768.85 2748.85 1134.31 8066.55 55706.1 13599.6 297.858 4406.62 824.352 14671.3 6569.79 164.523 1755.59 849.775 905.818 12004.6 13786.7 7674.29 6624.29 6112.46 1615.54 4496.91 12787 800.638 86.4453 6891.11 4989.3 13301.7 9836.85 42919.1 4713.95 1221.86 3492.09 101.28
internal_count=80897352 472426 206319 163765 266107 146695 108233 87802 63043 27215 42554 5696 75963 47407 29323 10419 18084 11277 3097 18904 14502 13317 4402 6807 36858 27797 81018 16916 64102 12158 11669 8079 62850 46297 16423 2134 9061 2633 16746 28556 2688 6122 2631 3491 21470 15681 9237 8081 6444 1562 4882 9429 2535 451 59460 47784 14289 9721 36868 3610 1124 2486 4623
is_linear=0
shrinkage=0.150321


Tree=6
num_leaves=64
num_cat=0
split_feature=0 23 23 22 10 16 24 15 20 18 10 23 13 13 16 10 2 23 24 20 10 20 20 20 19 24 13 25 25 19 10 23 20 20 24 20 10 20 19 10 22 10 20 20 10 24 24 10 20 10 20 20 20 10 24 20 19 3 22 25 13 23 24
split_gain=808130 3612.3 1042.31 1090.85 940.013 546.434 477.797 475.955 432.84 373.5 341.11 1701.33 648.786 232.534 170.327 157.862 148.972 163.901 160.71 201.592 142.592 201.563 180.543 116.827 113.289 194.17 107.757 100.01 99.7128 99.515 145.663 117.157 98.1671 100.086 135.171 97.6065 94.1675 91.8794 88.5874 86.0014 84.0407 336.705 212.76 157.464 112.232 192.084 407.965 194.227 188.474 218.24 106.407 82.1957 543.128 78.2057 73.0983 266.69 69.2025 69.0261 145.599 153.693 76.7905 70.2663 68.6025
threshold=1.0000000180025095e-35 2.5000000000000004 4.5000000000000009 1.0000000180025095e-35 396.50000000000006 1.0000000180025095e-35 4.5000000000000009 1.0000000180025095e-35 0.16333333333333336 1.0000000180025095e-35 396.50000000000006 1.5000000000000002 0.019855617901123179 0.95210273012140767 1.0000000180025095e-35 31094.000000000004 1.0000000180025095e-35 3.5000000000000004 16.500000000000004 0.078461538461538485 31094.000000000004 0.21111111111111114 0.59166666666666679 0.033908045977011504 4.5000000000000009 9.5000000000000018 0.72029361150651183 0.30384615384615393 0.39444444444444454 1.5000000000000002 396.50000000000006 7.5000000000000009 0.94590643274853814 0.86811594202898557 8.5000000000000018 0.16954022988505749 743.00000000000011 0.13961038961038963 3.5000000000000004 31094.000000000004 1.0000000180025095e-35 141.50000000000003 0.97008928571428588 0.46886446886446892 118.00000000000001 10.500000000000002 13.500000000000002 18.500000000000004 0.97008928571428588 73.000000000000014 0.069047619047619066 0.072751322751322761 0.29100529100529104 1137.0000000000002 24.500000000000004 0.048809523809523817 2.5000000000000004 1.0000000180025095e-35 1.0000000180025095e-35 0.48333333333333339 0.83483438348670103 6.5000000000000009 8.5000000000000018
decision_type=2 2 2 2 2 2 2 2 2 2 2 2 2 2 2 2 2 2 2 2 2 2 2 2 2 2 2 2 2 2 2 2 2 2 2 2 2 2 2 2 2 2 2 2 2 2 2 2 2 2 2 2 2 2 2 2 2 2 2 2 2 2 2
left_child=-1 10 3 5 14 7 13 9 -8 20 40 -12 62 -6 16 36 17 54 19 -19 23 35 -23 -3 27 -26 -18 -10 -29 31 -31 57 33 34 37 -22 -14 -17 -25 -15 41 44 43 -43 45 47 -47 -2 49 -49 -48 -38 -53 -27 55 -5 -54 58 59 -4 -59 -61 -13
right_child=1 2 29 4 6 -7 8 -9 24 -11 11 12 15 39 -16 32 26 18 -20 -21 21 22 -24 38 25 53 -28 28 -30 30 -32 -33 -34 -35 -36 -37 51 -39 -40 -41 -42 42 -44 -45 -46 46 50 48 -50 -51 -52 52 56 -55 -56 -57 -58 60 -60 61 -62 -63 -64
leaf_value=-0.15173823334372072 0.1468526854612921 0.014857618186365447 -0.18126346905135846 0.018619550934210256 -0.25264793154342086 -0.22799776623901641 -0.19816517633089106 -0.23033965795158073 -0.16976033338612306 -0.18247924751041042 0.15121263199150103 0.12382001815928984 -0.16251495301847568 0.12122796675756371 0.1495894916894018 0.16508170604389633 0.12740535736932793 0.018922029464203405 0.13730630828465384 0.10292953055780274 -0.15257950882083957 -0.10377276873604308 0.047061460497157447 0.093253061801972223 -0.20178842549137466 0.09971770109178589 0.14783641220756136 0.15295475019272783 0.069879004706601577 0.11694501485292362 0.055079316456964462 0.036322109985976576 -0.17088743671299908 0.099818791614128113 -0.18495890368269266 0.15147437432953359 0.15159623445866843 0.049458422993177896 0.11471127662847712 -0.1652246630825879 0.14951237073972043 0.0065376214005589033 0.14925155750259339 -0.23763779990766629 0.15147270143551966 -0.26593770161970587 0.0096055588848192961 -0.040184083316642021 0.15003369889656171 0.11409543878022067 0.15343556356919941 -0.24758024359737771 0.081958784187940434 0.019939203789435419 0.15080422323001866 0.12780707630335511 0.108821028824373 0.15374728717134414 0.08230589027952516 0.05421390393593753 -0.022527218513909378 -0.18215882583815804 0.14554991936971445
leaf_weight=376592.52516020375 5114.4666437581182 332.16948222182691 75.231412921799347 463.46730371192098 149.60969415772706 104.8526668343693 118.1068683094345 88.50872986856848 22.352966879494488 95.060014652088284 67064.521887302399 14945.376179262996 24.51863774145022 64.521729469532147 9187.0661000572145 144.45277214050293 10002.211397584528 650.8902335986495 2512.7304308591411 5728.6846940293908 19.419052972225472 204.04818713816348 720.38101934699807 11869.497119785286 57.951973787043244 478.83996984362602 12038.50467351824 618.0638434253633 584.84961344732437 3241.8758653309196 1036.2307561893249 1324.8966769839171 31.872780360281467 1264.2037898730487 44.318191745318472 374.87274037767202 566.822220236063 2738.5984946293756 6071.7626541547943 26.74229969852604 179935.50350254402 280.24299040995538 181.16944205760956 62.24237908795476 11017.349299058318 70.602940810844302 177.75833455473185 370.25171760842204 509.31046450138092 369.95768100768328 253.72450250759721 89.366243308410048 3244.6109374696389 526.24067593668588 2832.4876574650407 37367.199966162909 5298.8499523326755 438.06980831548572 10549.454286390916 346.10770826437511 55.708855694159865 23.429789441113826 3930.9433350339532
leaf_count=80424975 3254 1071 3613 454 2028 2200 5967 1645 869 5159 38500 16903 1546 421 6381 95 8199 791 1842 5490 1559 7039 10883 33356 2063 1071 7621 1268 6977 4738 9364 6338 1554 7567 1958 637 394 34017 9297 1617 105369 361 97 887 6316 162 321 1413 291 682 179 1368 17446 9088 1750 27003 22555 710 13174 3171 646 778 2830
internal_value=-1.8256e-07 0.136663 0.115778 0.121186 0.128355 0.0910806 0.0445269 0.0928224 0.0637805 0.094326 0.145107 0.138232 0.111283 -0.145533 0.131099 0.0872535 0.128718 0.124314 0.106569 0.0943773 0.0957094 0.0501068 0.0134366 0.0989876 0.0776522 0.0432723 0.138592 0.10722 0.112963 0.0830663 0.102032 0.0767014 0.0642554 0.0662194 0.0515822 0.134992 0.0977482 0.0554926 0.100541 0.0335789 0.148549 0.139102 0.0259901 -0.0402716 0.142407 0.127772 0.0422792 0.134484 0.0835195 0.037142 0.0948718 0.0985187 0.0949588 0.0582142 0.128183 0.126472 0.0986665 0.0813427 0.0789329 -0.00109372 0.133837 0.0372745 0.128378
internal_weight=794726 418133 120402 103311 83430.5 19880.6 2647.28 19775.7 2406.41 19687.2 297731 99388.5 32323.9 240.874 80783.2 13447.6 71596.2 49555.5 8892.31 6379.57 19592.2 1318.72 924.429 18273.4 2288.3 1063.03 22040.7 1225.27 1202.91 17091 4278.11 12812.9 4223.45 4191.57 2927.37 394.292 9224.17 2883.05 17941.3 91.264 198343 18407.1 523.655 342.485 17883.4 6866.07 502.086 6363.99 1249.52 740.209 431.483 9199.65 8632.83 1005.08 40663.2 37830.7 8543.46 11488 10994.2 444.769 493.779 369.537 18876.3
internal_count=80897318 472343 206278 163746 90900 72846 31369 70646 27303 69001 266065 146733 108233 4066 59531 88500 53150 37330 8123 6281 63842 20118 17922 43724 21336 12222 15820 9114 8245 42532 14102 28430 45191 43637 36070 2196 43309 34112 42653 2038 119332 13963 1345 1248 12618 6302 662 5640 2386 2095 500 41763 41369 10159 29207 27457 40001 22092 20736 7562 1356 3949 19733
is_linear=0
shrinkage=0.142805


Tree=7
num_leaves=64
num_cat=0
split_feature=0 23 23 22 10 10 23 13 6 19 16 20 18 24 23 15 24 24 21 6 25 10 25 10 2 10 19 10 19 10 23 10 2 24 24 20 24 20 20 22 24 19 1 19 19 20 25 5 1 22 20 25 20 24 24 13 20 19 24 20 20 20 20
split_gain=682345 3981.82 1169.85 1287.64 630.339 541.874 2251.88 725.964 342.2 413.663 246.379 238.968 232.713 185.853 183.739 168.367 144.789 127.014 116.868 184.755 383.676 168.393 126.869 117.487 114.907 109.352 107.887 146.769 101.252 155.938 100.054 96.8989 124.002 128.69 95.0936 92.6546 108.914 88.1783 112.162 86.4684 242.4 118.782 85.3439 189.854 82.8165 80.237 78.6535 371.733 77.107 87.0916 86.8694 118.49 76.7077 87.1585 87.6729 76.3916 186.832 166.213 106.323 83.1842 103.841 75.9779 73.9913
threshold=1.0000000180025095e-35 2.5000000000000004 4.5000000000000009 1.0000000180025095e-35 396.50000000000006 396.50000000000006 1.5000000000000002 0.72029361150651183 1.0000000180025095e-35 5.5000000000000009 1.0000000180025095e-35 0.16333333333333336 1.0000000180025095e-35 15.500000000000002 3.5000000000000004 1.0000000180025095e-35 25.500000000000004 10.500000000000002 1.0000000180025095e-35 1.0000000180025095e-35 0.41883116883116889 1137.0000000000002 0.30384615384615393 1299.0000000000002 1.0000000180025095e-35 5437.0000000000009 1.5000000000000002 396.50000000000006 7.5000000000000009 19945.000000000004 7.5000000000000009 2.5000000000000004 1.0000000180025095e-35 4.5000000000000009 8.5000000000000018 0.21111111111111114 3.5000000000000004 0.033908045977011504 0.054093567251461992 1.0000000180025095e-35 4.5000000000000009 3.5000000000000004 1.0000000180025095e-35 9.5000000000000018 4.5000000000000009 0.71825396825396837 0.36931818181818188 1.0000000180025095e-35 1.0000000180025095e-35 1.0000000180025095e-35 0.12132352941176472 0.52272727272727282 0.92450142450142458 26.500000000000004 24.500000000000004 0.95210273012140767 0.82480818414322254 5.5000000000000009 3.5000000000000004 0.13961038961038963 0.29100529100529104 0.94590643274853814 0.19523809523809527
decision_type=2 2 2 2 2 2 2 2 2 2 2 2 2 2 2 2 2 2 2 2 2 2 2 2 2 2 2 2 2 2 2 2 2 2 2 2 2 2 2 2 2 2 2 2 2 2 2 2 2 2 2 2 2 2 2 2 2 2 2 2 2 2 2
left_child=-1 5 3 8 13 -2 -7 34 10 -10 12 -6 15 14 24 37 25 28 22 20 21 -20 -13 -21 35 -11 30 -28 55 -30 48 62 33 -33 39 -5 -37 -3 -39 -8 -41 -42 -29 -44 -43 -27 -24 -48 50 -50 51 -4 -19 54 -54 56 58 -58 -9 -57 -61 -36 -16
right_child=1 2 26 4 11 6 7 17 9 16 -12 18 -14 -15 31 -17 -18 52 19 23 -22 -23 46 -25 -26 45 27 42 29 -31 -32 32 -34 -35 61 36 -38 38 -40 40 41 44 43 -45 -46 -47 47 -49 49 -51 -52 -53 53 -55 -56 59 57 -59 -60 60 -62 -63 -64
leaf_value=-0.14202169116033725 0.13917647357896484 0.012987538059820293 0.062326967546605883 0.11061057275133246 -0.16501940570405352 0.14156091477644897 0.10930591720625718 0.058532092018765275 -0.19918670736826363 0.15848938231872955 -0.1816631711271999 -0.15526966508902418 -0.15974444418194353 0.13351911612318459 0.03856636592696383 -0.18063954625031836 -0.18611478616061475 0.10880826143518346 0.095020197349978727 -0.035050836196181739 -0.17875522637418606 -0.026113855487631937 0.14213849924882457 0.14058660443617815 0.13237486574989998 0.086981475515159959 0.10488147202739992 0.063113138379474895 0.089727383400923538 -0.16880674121304293 0.028442547702011371 0.044001893196224946 0.1220727013476864 0.10035088584788195 0.13498586082325845 0.11193829343479877 0.13639793717931362 0.13299939771597497 0.08218325188290998 0.10513915078587334 -0.23080059316952825 0.069380113652350195 -0.19946997638082226 0.077419344588528019 -0.18546638718032851 -0.16742058260907786 -0.20406053163703503 0.13554580751594722 -0.013528033950530679 0.095184021836793545 0.039059838024989038 0.11440915884673342 0.047811517737999153 -0.10413999418014552 0.12745029980131017 0.15152213749964821 -0.19314932800594178 0.028184074047597017 0.10374650272271836 -0.1894881055194543 0.044603925563523147 0.032213326155572729 0.11683985205782486
leaf_weight=330301.21265113016 174254.49415945448 323.45491026970558 5309.6889740275219 20979.197009584866 88.1411241068854 58651.262525320053 14331.6241466254 1855.7044278979301 174.58869006473105 172.1934458669275 61.628777710720897 31.320893040858209 69.27615904645063 15143.386076506227 760.39549059420824 40.631183672696352 33.750990801490843 1880.5449979538098 462.32363884523511 84.989362094551325 173.65908896765905 383.07728035701439 493.58688813447952 358.43131847633049 11325.789947114885 46.629808515310287 3022.8289282361511 830.14458249311429 78.637586113065481 85.158508447930217 1296.0121702776523 885.44315356016159 4545.3250940926373 5093.9749926403165 3712.4490267299116 6440.6617799084634 7488.6710475943983 848.37852649134584 16791.174982105149 525.33904104679823 57.351738497614861 85.698840092867613 74.17740794364363 104.70741880498827 27.373225979506969 37.096447323448956 73.919984797481447 242.40618512220681 142.58101037098095 2423.1128521533683 2238.7503597569885 953.98613386321813 840.37031429447234 50.033066621050239 367.11277281865478 129.66741835698485 75.034998780116439 288.77154576219618 2029.928606976755 31.017117902636528 3378.3336108485237 140.58514598011971 314.39952093735337
leaf_count=80424975 119332 1050 10461 16647 5967 38500 16781 14145 5495 138 2150 1535 4576 11987 1009 1217 597 7117 1275 370 8544 8875 681 943 8324 319 4738 6626 388 4277 6338 868 3942 5151 3124 5524 5715 2228 53621 1464 484 388 1914 824 594 1455 2287 892 1912 2966 4702 2051 5615 1651 781 287 1827 2537 7398 679 38503 193 364
internal_value=1.88497e-06 0.125687 0.10405 0.109887 0.11778 0.134769 0.126095 0.0958142 0.0778813 -0.0368377 0.0808264 0.0491282 0.0817652 0.120027 0.116484 0.082733 0.0625175 0.0682159 0.0576183 0.0342754 0.0023492 0.0402785 0.0978131 0.106909 0.120339 0.0978801 0.0705757 0.0899213 0.059029 -0.0455792 0.0642378 0.101079 0.105058 0.0920448 0.112006 0.116418 0.125127 0.0833725 0.0846596 0.107028 0.0597176 -0.0794252 0.0448451 -0.0394147 0.00308235 -0.028448 0.108381 0.0544874 0.0684163 0.0891299 0.0621232 0.0703335 0.0913823 0.0650363 0.0723963 0.0612533 0.073546 -0.0192156 0.0822429 0.0464206 0.0422345 0.131277 0.0618432
internal_weight=703542 373240 110364 93967.9 75369.1 262876 88622 29970.7 18598.8 464.259 18134.5 2391.86 18072.9 72977.2 57833.9 18003.6 289.671 11090.3 2303.71 1462.48 1019.06 845.401 841.234 443.421 46234.3 255.92 16396 4031.86 7952.25 163.796 12364.1 11599.5 10524.7 5979.42 18880.4 34908.5 13929.3 17963 17639.6 15027.4 695.763 170.424 1009.03 178.885 113.072 83.7263 809.913 316.326 11068.1 2565.69 8502.43 6263.68 3138.06 1257.52 1207.48 7788.46 4249.44 363.807 3885.63 3539.02 3409.35 3853.03 1074.8
internal_count=80897318 472343 206278 163746 90900 266065 146733 108233 72846 8004 64842 31369 62692 59531 47544 58116 2509 85205 25402 20007 18694 10150 5395 1313 36210 1912 42532 14102 70041 4665 28430 11334 9961 6019 23028 27886 11239 56899 55849 19711 2930 1466 9364 2738 982 1774 3860 3179 22092 4878 17214 12512 15164 8047 6396 65376 25907 4364 21543 39469 39182 3317 1373
is_linear=0
shrinkage=0.135665


Tree=8
num_leaves=64
num_cat=0
split_feature=19 23 22 23 10 23 14 10 18 7 10 15 7 2 20 13 10 19 20 2 2 20 20 20 7 24 20 19 20 20 14 22 19 24 23 4 10 5 20 10 19 2 25 24 2 24 19 22 20 10 21 6 25 10 25 19 24 25 25 20 13 7 10
split_gain=575099 4390.64 1260.04 1325.34 628.495 2558.55 729.825 414.63 375.751 329.983 764.648 349.717 319.276 301.588 250.703 268.558 363.376 210.05 490.985 692.998 246.855 418.713 195.201 194.983 191.973 844.254 418.292 260.916 190.94 307.626 185.67 304.091 403.189 181.842 202.342 165.632 165.575 164.331 146.856 201.623 137.108 132.888 131.732 289.634 117.805 114.019 155.506 113.766 113.02 106.395 104.935 202.957 268.715 129.685 106.231 103.035 102.86 101.804 148.023 105.54 96.0466 92.7382 588.644
threshold=1.0000000180025095e-35 2.5000000000000004 1.0000000180025095e-35 4.5000000000000009 396.50000000000006 1.5000000000000002 0.72029361150651183 396.50000000000006 1.0000000180025095e-35 1.0000000180025095e-35 31094.000000000004 1.0000000180025095e-35 1.0000000180025095e-35 1.0000000180025095e-35 0.16954022988505749 0.036158030346407105 141.50000000000003 4.5000000000000009 0.64583333333333337 1.0000000180025095e-35 1.0000000180025095e-35 0.35000000000000003 0.042572463768115944 0.16333333333333336 1.0000000180025095e-35 3.5000000000000004 0.46886446886446892 11.500000000000002 0.29100529100529104 0.21111111111111114 0.87338155944862195 1.0000000180025095e-35 11.500000000000002 15.500000000000002 3.5000000000000004 1.0000000180025095e-35 5437.0000000000009 1.0000000180025095e-35 0.1012820512820513 16.500000000000004 1.5000000000000002 1.0000000180025095e-35 0.10300618921308578 19.500000000000004 1.0000000180025095e-35 8.5000000000000018 5.5000000000000009 1.0000000180025095e-35 0.92450142450142458 31094.000000000004 1.0000000180025095e-35 1.0000000180025095e-35 0.41883116883116889 1137.0000000000002 0.30384615384615393 1.5000000000000002 2.5000000000000004 0.15108695652173917 0.18898809523809526 0.77951388888888895 0.027206686479614203 1.0000000180025095e-35 97.500000000000014
decision_type=2 2 2 2 2 2 2 2 2 2 2 2 2 2 2 2 2 2 2 2 2 2 2 2 2 2 2 2 2 2 2 2 2 2 2 2 2 2 2 2 2 2 2 2 2 2 2 2 2 2 2 2 2 2 2 2 2 2 2 2 2 2 2
left_child=-1 4 8 7 -2 -6 12 33 9 10 11 14 36 22 15 37 -17 18 20 -20 56 -22 -11 -9 25 26 -8 -26 29 35 31 32 -27 34 44 -24 45 -3 39 -15 -5 55 -30 -44 61 46 47 -7 -33 -42 54 52 53 -52 -25 -36 -14 -40 -59 -60 -43 -4 -63
right_child=1 2 3 40 5 6 24 23 -10 13 -12 -13 17 38 -16 16 -18 -19 19 -21 21 -23 28 50 27 30 -28 -29 42 -31 -32 48 -34 -35 41 -37 -38 -39 57 -41 49 60 43 -45 -46 -47 -48 -49 -50 -51 51 -53 -54 -55 -56 -57 -58 58 59 -61 -62 62 -64
leaf_value=-0.13350002770213787 0.13020329088547766 0.01880209176481101 0.1003556601084999 0.057628309660479118 0.13309597616978691 0.087159460484984158 0.053210549925908089 -0.14667041281785564 -0.15638370277717131 0.13380534364151686 -0.12650257183435273 -0.17489737624603349 0.073007956683244155 0.11459085786980368 0.098388465464232799 0.090046268331236565 -0.16391822375836382 0.114414095843199 -0.11203861618409107 0.12609115224446235 -0.23894280029668832 0.07069066071187452 0.011800230053502421 -0.13687910306346773 0.078482931831696565 -0.16995980222114357 -0.16782485656007534 -0.17410322278546148 0.11705700039728464 -0.2056013066074423 0.080277865049066602 0.065770307342542397 0.063963074907397111 0.12281213237699473 0.070023509479230001 -0.22463879009809196 0.11967540337838671 -0.20188046939411261 0.13114338177404561 -0.16887698174434965 0.091768604102894835 0.076417319046936411 0.026018102525699197 -0.21434489862312087 0.12224356080229376 0.11973547235913463 -0.18255916968616265 0.011054336254807333 -0.153312872782812 -0.11541843205312802 0.080939212303712538 0.11391883237604157 -0.15724934596509918 -0.022799752618970701 0.10784024390011941 0.11450964067510534 0.12471295437503158 -0.1764783310655347 0.073461222835482121 -0.17491180721462052 0.11869344544135797 0.11955655868840598 -0.053775811682319728
leaf_weight=287318.19219795149 152312.4649168216 1181.0628477606224 19305.625089004636 11220.664463395486 50847.311798334122 1832.0159548632801 205.13070563226938 75.257660021074116 124.57814225362381 219.27523034624755 293.44073554163333 82.884870295645669 1538.2549716979265 69.224582335911691 7637.5937265716493 2596.7071037923452 93.184401722013718 1478.4095598608255 566.72191216424108 310.71484073996544 98.789894498884678 240.31869162246585 637.64260550122708 27.120968745090067 4439.9259722353891 256.86701053194702 446.8617732571438 65.010637748986483 238.68653234746307 154.15031545050442 2599.8329454553314 1234.9512356519699 226.93940142355859 13470.077466123737 5165.232108887285 48.936080675339326 9275.5071409828961 54.469911299645901 491.8391001150012 92.384875863324851 2919.2619727187557 1278.0938082635403 2315.5351355890743 82.028932895278558 10086.425270672888 1124.8194451034069 36.028748348355293 398.42971597332507 36.356816458515823 38.217087022028863 434.37772208452225 399.30030246498063 140.06460820458597 365.28613876225427 711.67431666748598 1053.397899210453 1130.4642437472939 36.844908645842224 2501.3521920368075 24.738052670843899 3257.2049158513546 12022.301900787279 332.15316756814718
leaf_count=80424975 119332 6065 17575 17392 38500 2659 859 5967 8339 571 13697 2901 3382 126 13742 3171 4411 1656 2225 293 290 484 5934 1535 22607 9669 19608 1693 290 2364 13753 9514 1903 11987 5889 409 8312 845 659 3122 5061 1482 12400 991 8324 1867 693 3747 1407 1860 1275 1313 8544 8875 3860 928 1612 879 9682 467 3035 9831 480
internal_value=5.27166e-07 0.115541 0.0931612 0.100067 0.125364 0.115954 0.0842922 0.10753 0.0631962 0.0646832 0.077663 0.0828528 0.0995356 0.0422299 0.0847657 0.0581804 0.0809969 0.0730613 0.057215 -0.0275061 0.0819337 -0.0214037 0.0170855 0.0517215 0.0553648 0.0379426 -0.0983911 0.0746728 0.00956596 -0.0437697 0.0584317 0.0259523 -0.0606429 0.109348 0.105884 -0.00636542 0.110717 0.00839622 0.0710633 -0.0476347 0.064182 0.0900001 0.0266195 0.0174197 0.109966 0.0860922 0.0691973 0.0736128 0.0590015 0.0889251 0.0591997 0.037485 0.00463071 0.0336849 0.0981051 0.0776343 0.0950781 0.0774019 0.0668831 0.0707312 0.106865 0.106038 0.114879
internal_weight=619299 331980 101278 82301.7 230702 78389.7 27542.4 68123.6 18976.6 18852 11939.3 11645.9 18030.5 6912.64 11563 3925.42 2689.89 5363.67 3885.26 877.437 3007.83 339.109 3696.25 2153.08 9511.88 5006.94 651.992 4504.94 3476.98 840.729 4354.95 1755.11 483.806 65970.5 52500.4 686.579 12666.8 1235.53 3216.38 161.609 14178.1 10753.9 2636.25 2397.56 41746.5 3391.29 2266.47 2230.45 1271.31 2957.48 2077.82 1339.03 939.728 799.664 738.795 6218.63 2668.72 3054.77 2562.94 2526.09 4535.3 31660.1 12354.5
internal_count=80897318 472343 206278 115213 266065 146733 108233 90900 91065 82726 44832 31135 27220 37894 28234 14492 7582 9942 8286 2518 5768 774 22959 31369 81013 56713 20467 24300 22388 8707 36246 22493 11572 59531 47544 6343 17278 6910 14935 3248 24313 11334 13681 13391 36210 8966 7099 6406 10921 6921 25402 20007 18694 10150 5395 6817 4994 11687 11028 10149 4517 27886 10311
is_linear=0
shrinkage=0.128882


Tree=9
num_leaves=64
num_cat=0
split_feature=0 23 23 10 10 23 22 3 20 10 10 10 1 6 10 10 18 22 20 18 24 19 20 13 20 13 20 24 20 16 10 20 20 4 18 16 10 10 24 20 23 5 10 24 20 18 6 25 1 19 10 10 10 25 5 20 13 13 10 20 24 19 24
split_gain=486379 4735.81 1190.06 1212.04 581.544 2257.12 390.92 418.528 403.706 337.06 328.081 300.829 220.18 327.196 212.341 350.901 1182.05 207.666 565.077 490.095 194.957 192.825 172.5 196.911 156.128 136.754 158.944 135.076 157.738 130.203 112.871 128.391 109.172 106.163 405.063 394.474 474.153 196.052 120.172 203.064 108.444 138.128 101.864 96.7194 173.403 93.5999 189.937 195.387 113.4 103.255 91.2283 96.3661 91.0105 155.223 145.145 142.792 133.483 124.3 108.35 127.304 89.0514 242.357 124.673
threshold=1.0000000180025095e-35 2.5000000000000004 4.5000000000000009 396.50000000000006 19945.000000000004 1.5000000000000002 1.0000000180025095e-35 1.0000000180025095e-35 0.27619047619047626 80.000000000000014 141.50000000000003 3.5000000000000004 1.0000000180025095e-35 1.0000000180025095e-35 19.500000000000004 16.500000000000004 1.0000000180025095e-35 1.0000000180025095e-35 0.97008928571428588 1.0000000180025095e-35 7.5000000000000009 2.5000000000000004 0.46886446886446892 0.72029361150651183 0.033908045977011504 0.95210273012140767 0.46886446886446892 12.500000000000002 0.19523809523809527 1.0000000180025095e-35 31094.000000000004 0.79655172413793118 0.46886446886446892 1.0000000180025095e-35 1.0000000180025095e-35 1.0000000180025095e-35 141.50000000000003 97.500000000000014 7.5000000000000009 0.069047619047619066 3.5000000000000004 1.0000000180025095e-35 709.00000000000011 3.5000000000000004 0.46886446886446892 1.0000000180025095e-35 1.0000000180025095e-35 0.20526315789473687 1.0000000180025095e-35 2.5000000000000004 396.50000000000006 921.50000000000011 1299.0000000000002 0.59166666666666679 1.0000000180025095e-35 0.46886446886446892 0.027206686479614203 0.027206686479614203 1478.0000000000002 0.46886446886446892 16.500000000000004 7.5000000000000009 25.500000000000004
decision_type=2 2 2 2 2 2 2 2 2 2 2 2 2 2 2 2 2 2 2 2 2 2 2 2 2 2 2 2 2 2 2 2 2 2 2 2 2 2 2 2 2 2 2 2 2 2 2 2 2 2 2 2 2 2 2 2 2 2 2 2 2 2 2
left_child=-1 4 3 6 17 -6 7 8 9 27 11 -9 43 20 15 29 -17 18 19 22 30 42 -2 -24 -13 -23 -27 28 -3 -8 32 -32 -14 40 35 37 -37 -35 -36 -40 -16 -42 -5 44 -7 49 48 -48 -47 -4 -51 -52 53 57 58 -56 -55 -44 59 -54 61 -28 -62
right_child=1 2 45 21 5 12 14 10 -10 -11 -12 24 13 -15 33 16 -18 -19 -20 -21 -22 25 23 -25 -26 26 60 -29 -30 -31 31 -33 -34 34 38 36 -38 -39 39 -41 41 -43 52 -45 -46 46 47 -49 -50 50 51 -53 54 56 55 -57 -58 -59 -60 -61 62 -63 -64
leaf_value=-0.12585478568455383 0.11304006674026131 0.056313986230188261 0.040016415994115366 -0.13181912065355786 0.1254801191488798 0.092577461158457941 0.08656078287392692 -0.050911300296700698 0.073984546152131556 -0.18527337703585997 -0.20408769407104704 0.01630133139906937 -0.18393739625905658 0.085349309038097426 0.11194170158698973 -0.23631325894879027 0.12463847386862068 0.12253252557318296 0.12550000469603062 -0.19850019408252778 -0.16064838329335596 0.075671418145187158 0.097071273022988874 0.049485546772196104 0.11010522883931922 0.10650144541412085 0.018897791177825907 -0.17434702038336161 -0.084679702796644607 0.11555967819495395 -0.15479310171803254 0.017136596499578008 0.060237945109443483 0.062980130391762243 0.030988213487755514 0.16335428676752048 -0.2334837457683048 0.10921484581243524 0.055606470301669327 -0.23287213299740595 0.085928322883137925 0.12314086819638971 -0.15494958461795677 0.064810428199083323 0.013367251339409542 0.060590390023088948 0.034050999350980007 -0.21988958493908875 0.1062726646880688 0.093909012018162055 -0.18155925679617271 0.046423089527260958 -0.11325377733568816 0.10327109585162005 -0.1657712224944819 0.036722502357541417 -0.032623075868666855 0.029290580225033995 0.039894543018084816 0.13778039487727498 0.077868123831663319 -0.16821169398720137 -0.13769293094593818
leaf_weight=249068.75199676311 10567.778677091934 406.79038315173239 8555.6103048902005 48.365531389135867 16912.635485172272 553.81212916225195 14262.261218595784 203.16806965880096 817.61033505667001 196.29070755280554 52.754125299397856 293.82970060966909 26.245636582374573 403.8096981626004 24023.67950521037 208.07804278284311 373.65539519861341 123136.22692921665 27359.299953341484 78.28556502237916 179.24789851997048 6351.0012405341258 13297.193615850061 1461.1297205439769 2981.42496788688 320.07269884087145 478.72239253437147 57.818972731241956 163.1107639321126 2829.7663481123745 133.62278103735298 121.7953603155911 270.45308891683817 1702.169124647975 144.52626979351044 70.096458673477173 111.35504817962646 7656.5612078532577 56.817740269005299 91.601522669196129 6072.5995769659057 2029.6694005206227 62.325717834755778 5006.3200956797227 1614.9785114470869 3305.5842652022257 136.27642864605878 63.071881721261889 1095.3398896019207 1117.7403740386944 24.728173772338778 680.93557694216724 134.25988843513187 980.31423854513559 105.78209133021301 96.75043778878171 119.71659657824785 305.98042867099866 3466.6965161306434 34.772436320781708 344.20441763754934 127.89150218409486 41.440104727167636
leaf_count=80425544 11402 2551 25146 3395 14882 1171 14878 391 1949 5663 1362 437 292 1504 22929 458 296 114390 24042 894 6143 21366 18795 5535 3379 1862 7415 1608 2263 2635 5139 1453 2244 1838 129 82 148 6943 69 147 6990 1897 2530 33948 24430 5243 414 602 1981 1642 152 7371 1712 3007 4705 812 792 696 25617 62 3694 4668 2379
internal_value=2.59014e-05 0.106696 0.0838075 0.089892 0.117255 0.0998078 0.0967425 0.064351 0.0132243 -0.0471363 0.0880738 0.0927551 0.0475223 -0.00257476 0.0995474 0.0882081 -0.00526784 0.119754 0.11326 0.10006 -0.0513389 0.0557689 0.101017 0.0923761 0.101723 0.068233 0.0321034 -0.00295856 0.0156232 0.0913902 -0.0148687 -0.0738991 0.0362835 0.104314 0.0930092 0.0973655 -0.0799451 0.100839 -0.0482059 -0.124004 0.107761 0.0953116 0.0378907 0.055445 0.0337394 0.0521787 0.0667544 -0.049285 0.0720543 0.0456929 0.0721684 0.0373664 0.0395446 0.065456 0.029569 -0.070306 0.0884112 -0.00333751 0.0352104 -0.0594428 0.00774323 -0.0214706 0.0534221
internal_weight=542995 293926 92803.2 77823.9 201123 25222.9 64805.6 5172.8 1641.62 824.011 3531.18 3478.42 8310.29 1135.17 59632.8 17673.8 581.733 175900 52763.7 25404.4 731.365 13018.3 25326.1 14758.3 3275.25 7663.33 1312.33 627.72 569.901 17092 552.117 255.418 296.699 41959.1 9833.13 9540.18 181.452 9358.73 292.946 148.419 32125.9 8102.27 5354.96 7175.11 2168.79 14979.3 4600.27 199.348 4400.92 10379 1823.4 705.664 5306.6 1468.34 3838.26 202.533 1100.03 368.306 3635.73 169.032 992.258 606.614 385.645
internal_count=80898113 472569 206305 163754 266264 91206 79042 19603 14034 12085 5569 4207 76324 16775 59439 18267 754 175058 60668 36626 15271 84712 35732 24330 3816 41384 20018 6422 4814 17513 9128 6592 2536 41172 9356 9011 230 8781 345 216 31816 8887 43328 59549 25601 42551 8240 1016 7224 34311 9165 7523 39933 7025 32908 5517 3799 3226 27391 1774 18156 12083 6073
is_linear=0
shrinkage=0.122437


Tree=10
num_leaves=64
num_cat=0
split_feature=0 23 23 10 10 23 13 7 20 22 6 14 6 7 24 14 12 10 6 16 10 10 4 7 20 10 24 19 10 10 7 13 20 7 10 10 20 13 25 20 14 19 24 22 23 24 19 22 10 2 6 10 10 10 20 14 20 14 22 16 6 19 13
split_gain=412226 4395.75 1269.74 1307.28 670.789 2691.09 734.807 285.202 478.242 262.247 240.705 231.492 219.798 316.158 407.065 286.293 211.681 197.042 233.647 1161.22 176.916 174.131 319.454 177.727 151.675 145.477 145.057 144.066 142.111 133.304 129.586 293.577 108.485 110.03 360.588 274.895 216.494 224.975 201.565 245.001 159.453 209.178 134.656 126.559 102.845 102.299 109.128 102.246 226.039 355.444 145.434 282.761 129.025 269.676 213.841 386.338 190.653 111.431 101.551 220.688 177.974 143.093 98.9382
threshold=1.0000000180025095e-35 2.5000000000000004 4.5000000000000009 396.50000000000006 396.50000000000006 1.5000000000000002 0.72029361150651183 1.0000000180025095e-35 0.19523809523809527 1.0000000180025095e-35 1.0000000180025095e-35 0.69232923723946493 1.0000000180025095e-35 1.0000000180025095e-35 3.5000000000000004 0.72029361150651183 1.0000000180025095e-35 19.500000000000004 1.0000000180025095e-35 1.0000000180025095e-35 2.5000000000000004 16.500000000000004 1.0000000180025095e-35 1.0000000180025095e-35 0.033908045977011504 102.00000000000001 2.5000000000000004 11.500000000000002 709.00000000000011 709.00000000000011 1.0000000180025095e-35 0.95210273012140767 0.90238095238095251 1.0000000180025095e-35 1137.0000000000002 31094.000000000004 0.27619047619047626 0.72029361150651183 0.36931818181818188 0.71825396825396837 0.87338155944862195 6.5000000000000009 18.500000000000004 1.0000000180025095e-35 3.5000000000000004 3.5000000000000004 1.5000000000000002 1.0000000180025095e-35 141.50000000000003 1.0000000180025095e-35 1.0000000180025095e-35 28.500000000000004 118.00000000000001 18.500000000000004 0.97008928571428588 0.69232923723946493 0.069047619047619066 0.43766672472990181 1.0000000180025095e-35 1.0000000180025095e-35 1.0000000180025095e-35 1.5000000000000002 0.72029361150651183
decision_type=2 2 2 2 2 2 2 2 2 2 2 2 2 2 2 2 2 2 2 2 2 2 2 2 2 2 2 2 2 2 2 2 2 2 2 2 2 2 2 2 2 2 2 2 2 2 2 2 2 2 2 2 2 2 2 2 2 2 2 2 2 2 2
left_child=-1 4 3 9 47 -6 7 28 -9 10 11 21 13 14 15 -8 45 18 19 30 -20 23 44 -3 -13 -24 -14 -15 -7 -5 31 -11 33 35 -35 36 37 -31 39 -37 42 -42 -36 -38 -23 46 -10 48 50 57 52 -52 53 56 55 -55 -2 -50 59 60 -4 -60 -19
right_child=1 2 58 29 5 6 12 8 16 17 -12 24 26 27 -16 -17 -18 62 20 -21 -22 22 25 -25 -26 -27 -28 -29 -30 32 -32 -33 -34 34 40 38 43 -39 -40 -41 41 -43 -44 -45 -46 -47 -48 -49 49 -51 51 -53 -54 54 -56 -57 -58 -59 61 -61 -62 -63 -64
leaf_value=-0.11889117237311778 -0.024304503463900649 0.093861114103895749 0.037505150540436377 -0.12559908475463982 0.11857408566804845 -0.0083046848495754427 0.029872057707253045 -0.2056400718757124 0.062505618604243543 0.078751539687326705 -0.15027234939049799 0.013222573179220352 -0.13077977139736563 0.058320164173770297 0.025610528652975612 -0.14400515454509463 -0.075546266175961233 0.090139759849210341 0.040737292903519635 -0.22517921691656936 0.12897968194805781 0.058229540139367826 -0.12430360168377282 -0.15303961817091682 0.1028801066958014 0.023390205444000452 0.087970372492348001 -0.13708622212034519 0.098259495214660472 0.034649043414881377 0.09331860218593549 0.010465139933304607 0.091516392188691731 -0.18124797619449237 0.036844189336666208 0.077271071555758949 0.082195750752143332 -0.1409411769804953 -0.13595140660373378 -0.1316191094419126 -0.078295392428618091 0.046465696957146904 0.096168110429678516 0.035554934706240028 -0.13500346778126376 0.089223029823762762 -0.015854146678991047 0.11573844540822804 0.097186397250909259 -0.21174615970439672 0.11522183159509262 -0.1977914651465365 0.11887403217296738 0.035142926612703435 0.11680826163618598 -0.21968481231226417 0.11356325005392592 -0.14579614942453645 0.042591090025626284 -0.17890445189079834 -0.13804352524841129 0.073353407695948655 0.10262725848329164
leaf_weight=215398.25222676308 140.5364021062851 772.81620089197531 1226.9516844879836 54.96347515238449 37449.527516424656 171.81471320986748 196.09615623299032 85.716352991759777 1783.7557878196239 6608.0092800483108 65.874269482679665 291.86854047328234 38.43706707470119 4060.7161099622026 2920.0813375064172 358.25347618479282 135.71661153808236 14500.74095512554 367.69292721897364 166.74966871738434 2044.2105601876974 894.97753621428274 259.28277219366282 37.713069103192538 2112.8231631643139 135.32568699168041 1509.4464867347851 47.693958070129156 9204.8587732259184 1250.3981285330374 5712.4187122904696 979.40390763431787 784.76458660291974 100.31667656265199 2889.0754981652135 277.02707129062037 4140.3841192629188 102.85677866975311 151.62012389645679 99.769224514137022 339.51959298970178 381.6101409252733 630.24806602904573 983.73409414291382 34.829747040290385 1989.4211506769061 276.00511880964041 103859.20180614106 239.39695782959461 72.110927386209369 97.833875894546509 58.819601714611053 6274.0307000875473 494.03994624502957 280.21358370780945 91.630292683839798 3057.0760770887136 24.63364308513701 10425.090888920473 70.513953677611426 79.172614300332498 2557.5396948484704 22706.619434836321
leaf_count=80425544 192 1586 13157 4091 38533 729 1267 479 3788 7910 2364 558 1458 22967 33537 18203 1069 16907 601 350 1871 3855 1984 957 4832 2060 6156 1693 12733 6347 6233 1302 2873 1542 16958 3766 7087 5435 9490 6280 4701 1565 2431 12146 1407 3045 1230 105428 386 388 97 305 6264 1693 285 386 3384 569 17414 1533 3547 6900 24265
internal_value=1.83566e-05 0.0988515 0.0770133 0.0834881 0.109366 0.0993954 0.067847 0.0849375 0.0599083 0.0908018 0.0640488 0.0673002 0.0422741 0.0340844 0.00824011 -0.082745 0.065556 0.0931173 0.0821869 0.0761625 0.115625 0.0393018 0.0132237 0.0816144 0.0920417 -0.0739524 0.0821857 0.0559086 0.0963039 0.0488445 0.0800133 0.069948 0.0496798 0.0467521 0.0321446 0.0557773 0.0623562 0.0208925 -0.0247182 0.0210862 0.0373741 -0.0123916 0.0475741 0.0732795 0.0503939 0.0703617 0.0519942 0.114598 0.103621 0.00959844 0.106627 -0.00448408 0.108312 0.0918943 0.0340909 -0.0060568 0.107479 0.072513 0.0454884 0.0153888 0.0264394 0.0486738 0.0977717
internal_weight=474552 259154 84236.9 69877.6 174917 60227.5 22778 13647.3 4270.62 57691.4 4605.51 4539.64 9130.72 7582.84 3474.43 554.35 4184.9 53085.8 15878.5 13466.6 2411.9 2134.95 1324.42 810.529 2404.69 394.608 1547.88 4108.41 9376.67 12186.3 13299.8 7587.41 12131.3 11346.6 4340.77 7005.79 6477.37 1353.25 528.416 376.796 4240.45 721.13 3519.32 5124.12 929.807 4049.18 2059.76 114690 10830.3 336.142 10494.2 156.653 10337.5 4063.5 865.884 585.67 3197.61 264.031 14359.3 1376.64 1306.12 12982.6 37207.4
internal_count=80898113 472569 206305 163754 266264 146887 108354 23073 9611 79042 19603 17239 85281 77667 53007 19470 9132 59439 18267 15795 2472 11849 9306 2543 5390 4044 7614 24660 13462 84712 15445 9212 80621 77748 27197 50551 31015 11782 19536 10046 25655 6266 19389 19233 5262 8063 5018 119377 13949 1343 12606 402 12204 5940 2364 2079 3576 955 42551 18237 16704 24314 41172
is_linear=0
shrinkage=0.116316


Tree=11
num_leaves=64
num_cat=0
split_feature=0 23 23 11 11 23 14 13 19 7 11 16 6 6 11 1 18 22 19 25 11 19 11 25 20 6 11 18 22 22 11 2 23 11 25 25 7 25 20 14 20 13 20 20 1 2 20 11 19 25 7 25 20 11 11 19 19 20 3 13 19 11 25
split_gain=349129 4384.88 1307.18 1376.69 744.649 2751.51 759.71 218.322 157.51 157.159 175.759 154.071 1055.22 303.462 129.745 264.368 126.907 159.636 124.227 123.234 135.82 413.249 119.633 157.435 400.63 222.032 762.07 131.838 115.091 109.909 168.168 132.559 135.31 105.177 98.3994 149.224 110.087 305.522 259.081 138.784 90.0714 96.6002 160.883 129.157 322.359 115.438 261.478 183.397 158.652 152.258 99.103 88.185 134.463 85.1927 97.1862 84.2491 124.763 97.5154 84.224 166.946 100.773 135.354 130.53
threshold=1.0000000180025095e-35 2.5000000000000004 4.5000000000000009 0.0046669570027895813 0.0046669570027895813 1.5000000000000002 0.72029361150651183 0.72029361150651183 1.5000000000000002 1.0000000180025095e-35 0.063995574335856134 1.0000000180025095e-35 1.0000000180025095e-35 1.0000000180025095e-35 0.0026483362563118683 1.0000000180025095e-35 1.0000000180025095e-35 1.0000000180025095e-35 1.5000000000000002 0.24404761904761907 0.010846408267517276 1.5000000000000002 0.00065325627655692749 0.93750000000000011 0.97008928571428588 1.0000000180025095e-35 0.0004649301427747502 1.0000000180025095e-35 1.0000000180025095e-35 1.0000000180025095e-35 0.00022952247554702861 1.0000000180025095e-35 3.5000000000000004 0.0083452018032227331 0.082207207207207214 0.10990338164251208 1.0000000180025095e-35 0.6515151515151516 0.46886446886446892 0.87338155944862195 0.90238095238095251 0.72029361150651183 0.89087301587301593 0.35000000000000003 1.0000000180025095e-35 1.0000000180025095e-35 0.16954022988505749 0.017396626608128629 17.500000000000004 0.16333333333333336 1.0000000180025095e-35 0.26969696969696971 0.19523809523809527 0.00042961899269059199 0.00016478536705940517 4.5000000000000009 3.5000000000000004 0.19523809523809527 1.0000000180025095e-35 0.72029361150651183 3.5000000000000004 0.0026483362563118683 0.55050505050505061
decision_type=2 2 2 2 2 2 2 2 2 2 2 2 2 2 2 2 2 2 2 2 2 2 2 2 2 2 2 2 2 2 2 2 2 2 2 2 2 2 2 2 2 2 2 2 2 2 2 2 2 2 2 2 2 2 2 2 2 2 2 2 2 2 2
left_child=-1 4 3 7 22 -6 9 8 11 10 19 12 14 -13 -3 -16 58 -18 -19 -7 28 -22 23 -2 25 27 53 -25 -21 30 -9 32 51 -5 -8 -36 37 39 -39 -37 41 42 43 44 -35 48 -47 -48 49 -43 -45 -31 -53 54 -27 56 57 -11 60 -60 61 -4 -63
right_child=1 2 16 33 5 6 34 29 -10 55 -12 13 -14 -15 15 -17 17 18 -20 20 21 -23 -24 24 -26 26 -28 -29 -30 31 -32 -33 -34 40 35 36 -38 38 -40 -41 -42 45 -44 50 -46 46 47 -49 -50 -51 -52 52 -54 -55 -56 -57 -58 -59 59 -61 -62 62 -64
leaf_value=-0.11247154907885147 0.11103109253398352 0.075730584183938632 0.028652392702079053 -0.11487479208517069 0.11218685002689767 0.095697736984094409 0.0794439594679648 0.065330755534248178 0.099121649374621368 -0.14474609284009168 0.094734329733034126 -0.15227102495451383 -0.12141011623512478 0.12340820324147826 -0.16455408464157334 0.080693890849870123 -0.12827670275831096 0.049841271352042152 0.10406866733672779 0.0962271848203161 0.06549508737851488 -0.091298700016965759 0.11165470630467164 0.082112950485614677 0.11217937094867682 0.058005978503217745 -0.21249797322375177 0.11160692601964391 -0.0073268564897881472 0.10713411821208819 -0.11770514565551066 0.10514784860232008 0.068490927976428223 0.044306824128217015 -0.13035151721220881 0.0031412335015696315 0.044936421636753342 0.047508196715912755 -0.12701853931343868 0.050111799473809927 0.080502995635618829 0.089950170182075503 -0.19371213394748993 0.075599598683927891 -0.090282013986979284 -0.13616050129934776 -0.16511042680218041 0.058025907717323959 -0.14108300577885557 0.0045346562228215327 0.029260908439913361 0.074111846422586475 0.10027339379434468 -0.00062136387259764116 0.1366430957112808 0.084755410213513419 -0.15293357593562099 0.052810252006842542 0.093704722552239939 -0.079885055061379329 0.057515631074580215 -0.11492088567461686 0.0063941305601323273
leaf_weight=185764.03480921921 20359.491635994986 20987.545269692084 7214.4694148369599 47.92679462954402 31866.188726305962 819.39358239248395 523.16933445259929 449.50700671668164 3553.1666084015742 26.774866811931133 6446.2920212596655 47.273478507529944 336.13574830815196 1176.1448887586594 80.076360797509551 142.93623877223581 53.07975334051298 3560.4495039144531 605.5170590467751 666.04367029666901 624.98484166525304 300.29091303609312 54228.149598101154 8657.5882225185633 11904.706481099129 644.71498727798462 127.42961274087429 2412.9737853873521 162.15490072779357 3771.0922602675855 66.780614710878581 7595.5806362368166 3695.8762215469033 2522.3028792669065 66.040689058601856 1347.2492602886632 3662.3488124934956 155.94999664835632 295.71056073438376 1784.2883561104536 719.30145846004598 289.50109268230153 28.932707798667252 2549.6963431478944 233.67968948744237 88.617077304283157 41.84568247012794 2109.9132681980263 77.181526647880673 1921.7793129066704 733.03660031780601 5012.0084527283907 4773.1204362846911 181.15456509590149 277.75771206617355 1063.9708501845598 33.114785186946392 2758.3196792937815 532.96280601387843 74.004286672919989 1347.4532184727723 150.41149894086993 359.18379159941105
leaf_count=80425544 24970 31097 17062 4091 38533 1848 3202 1492 5220 479 8318 903 1542 1232 1147 389 3095 4465 680 828 2095 3058 65620 10205 14287 679 144 2988 1116 4693 5654 9042 4885 12386 2419 20570 22921 869 19575 11538 2873 2257 93 5760 2141 4871 686 15974 2420 28446 2714 6013 5733 190 294 1673 343 7502 1076 788 6870 4499 4016
internal_value=1.6573e-05 0.0915288 0.070042 0.0768047 0.102447 0.0917977 0.0604477 0.0844618 0.0773647 0.0769298 0.0849587 0.0739513 0.0717543 0.112252 0.0748398 -0.0088357 0.0393465 0.0553523 0.0578239 0.060347 0.0436309 0.0144191 0.108113 0.103794 0.0976875 0.0836284 0.0389172 0.088583 0.07602 0.0918128 0.0408667 0.092864 0.0874305 0.0419574 0.0332793 0.0299306 0.0314691 0.0176664 -0.0668798 0.0299367 0.0426657 0.0400652 0.049188 0.0504909 0.0327703 0.027807 0.0456141 0.0533609 0.0103203 0.0158725 0.0653048 0.0925703 0.0869123 0.0686699 0.082216 0.0582022 0.0480618 0.0506874 0.0323474 0.0721203 0.0296528 0.0247624 -0.0300853
internal_weight=414109 228345 76948.5 63051 151396 52602.3 20736.1 51687.2 26323.3 12901.3 9019.16 22770.1 21546.7 1223.42 21210.6 223.013 13897.5 4219.05 4165.97 2572.87 1753.47 925.276 98794 44565.8 24206.3 12301.6 1231.06 11070.6 828.199 25364 516.288 24847.7 17252.1 11363.7 7834.76 7311.59 7245.55 3583.2 451.661 3131.54 11315.8 10596.5 6067.65 6038.72 2755.98 4528.84 2240.38 2151.76 2288.46 2211.28 3282.73 13556.2 9785.13 1103.63 922.473 3882.18 2818.21 2785.09 9678.49 606.967 9071.52 7724.06 509.595
internal_count=80898113 472569 206305 163754 266264 146887 108354 79042 41530 27260 17263 36310 34175 2135 32633 1536 42551 8240 5145 8945 7097 5153 119377 53757 28787 14500 1307 13193 1944 37512 7146 30366 21324 84712 81094 77892 75473 52552 20444 32108 80621 77748 23094 23001 14527 54654 21531 16660 33123 30703 8474 16439 11746 1163 973 9997 8324 7981 34311 1864 32447 25577 8515
is_linear=0
shrinkage=0.1105


Tree=12
num_leaves=64
num_cat=0
split_feature=0 26 10 13 20 10 3 2 7 13 10 20 20 14 20 18 22 10 10 8 13 10 1 20 20 22 5 14 20 18 22 20 19 5 10 20 10 19 13 10 18 24 16 10 20 19 14 19 24 19 24 10 22 24 10 8 13 20 3 10 10 13 5
split_gain=294988 2576.26 3438.9 723.003 681.969 489.02 340.895 326.341 230.15 317.348 211.292 200.679 180.478 173.358 173.093 163.035 350.327 165.789 187.319 141.123 231.365 135.535 132.863 124.529 254.029 116.07 101.328 111.245 288.102 103.188 197.84 136.79 99.9759 110.018 193.763 180.661 149.225 250.182 93.0661 91.1894 90.2191 101.194 93.0064 88.0328 85.2986 84.6832 83.2689 80.9466 80.4859 76.4956 81.5245 75.3051 189.994 139.668 120.45 116.226 79.8268 73.5628 75.138 80.228 69.7002 68.5594 82.3501
threshold=1.0000000180025095e-35 1.0000000180025095e-35 396.50000000000006 0.72029361150651183 0.14835164835164838 42.500000000000007 1.0000000180025095e-35 1.0000000180025095e-35 1.0000000180025095e-35 0.019855617901123179 39.500000000000007 0.89087301587301593 0.21111111111111114 0.87338155944862195 0.87750000000000006 1.0000000180025095e-35 1.0000000180025095e-35 225.00000000000003 55.500000000000007 1.0000000180025095e-35 0.83483438348670103 1.5000000000000002 1.0000000180025095e-35 0.05634920634920635 0.12132352941176472 1.0000000180025095e-35 1.0000000180025095e-35 0.95210273012140767 0.032795698924731186 1.0000000180025095e-35 1.0000000180025095e-35 0.093073593073593086 7.5000000000000009 1.0000000180025095e-35 1137.0000000000002 0.86811594202898557 709.00000000000011 6.5000000000000009 0.95210273012140767 1137.0000000000002 1.0000000180025095e-35 23.500000000000004 1.0000000180025095e-35 921.50000000000011 0.64583333333333337 4.5000000000000009 0.72029361150651183 2.5000000000000004 9.5000000000000018 12.500000000000002 2.5000000000000004 39.500000000000007 1.0000000180025095e-35 5.5000000000000009 28.500000000000004 1.0000000180025095e-35 0.83483438348670103 0.41428571428571431 1.0000000180025095e-35 102.00000000000001 248.00000000000003 0.036158030346407105 1.0000000180025095e-35
decision_type=2 2 2 2 2 2 2 2 2 2 2 2 2 2 2 2 2 2 2 2 2 2 2 2 2 2 2 2 2 2 2 2 2 2 2 2 2 2 2 2 2 2 2 2 2 2 2 2 2 2 2 2 2 2 2 2 2 2 2 2 2 2 2
left_child=-1 2 4 8 5 10 11 -8 12 32 21 14 22 -9 23 17 -17 18 51 26 -21 -2 -4 38 -25 -14 29 -28 -29 31 -31 -7 33 34 -10 -36 -35 -38 -5 43 41 42 -23 -27 -18 -26 -13 -24 -32 50 -19 54 53 -53 56 -54 -6 58 59 -20 -46 -42 -63
right_child=1 -3 3 6 15 19 7 13 9 -11 -12 46 25 -15 -16 16 44 49 57 20 -22 40 47 24 45 39 27 28 -30 30 48 -33 -34 36 35 -37 37 -39 -40 -41 61 -43 -44 -45 60 -47 -48 -49 -50 -51 -52 52 55 -55 -56 -57 -58 -59 -60 -61 -62 62 -64
leaf_value=-0.1065065171807191 0.043276242528677435 0.10626310257581054 0.043396374691126137 0.096804711072852268 0.076707575775952469 0.06707692511282852 -0.13256482441134168 -0.12979080643622276 -0.13915103795773962 -0.091023787966823713 -0.065004259505619666 0.1042797275042459 0.077728443490050356 0.082524810826695147 -0.12641498986626504 -0.13616338976984935 0.099780940008208474 -0.13523009498103852 0.095122034000271777 0.082078812069317747 -0.20718108133685159 0.061153731848538666 -0.14507157749418473 -0.12901129104429787 0.031984755635552177 0.020524996974168347 0.10117227451384013 -0.18988627449237544 0.080166015073302274 -0.11729963314818895 0.074951968135301861 0.087743040569189051 0.093647281950622704 0.099342326696792951 0.052549996891717035 -0.16411961602724226 -0.10246435483989434 0.10269433066635861 -0.10610475197773191 -0.111441233549397 0.09202789578289193 0.041703610714108164 0.086412759884056334 0.081028723260909777 0.10580499919250078 0.010392847912811467 0.050172686326751738 0.02946636575024094 0.096388247058352985 -0.14492153432516441 0.047624627245353747 -0.079002100908447268 0.080516715000818861 0.069363633354132037 0.1008750437643099 -0.010435788215302647 0.092761929935101184 0.10533916928322747 0.10563578249244623 0.078440504173849804 0.19985956296704399 0.074354493135477165 0.023892194317191365
leaf_weight=159767.85207182734 2789.1077624468599 46269.209373474121 1323.5770171217155 371.85861410212237 12228.718292905483 7903.2352044714498 274.50240169081371 50.573424543486908 56.159141007810831 184.72975022066385 135.56667467602529 371.94048621878028 9204.9706352576613 183.2391501981765 78.136849178932607 65.441203886759467 21612.917793106288 24.62737837433815 8523.6022519904654 77.078983969637193 44.41398250265047 6754.851552029606 65.733269191347063 113.85093656857498 7059.1858445121907 604.13471833337098 5623.721893904265 48.067621109774336 254.61695068655536 46.870646753406618 2662.0576294064522 6568.0846126675606 470.68719291593879 101.600724757649 4254.2865844380576 38.70751528441906 225.86496113240719 87.574648261070251 23.15620956820203 37.342920677969232 2469.7346587451175 2137.8532894486561 2156.4591230209917 473.49842334724963 209.7516176700592 2800.9873437050264 2070.8285144201946 48.127095816656947 8144.9866443276405 23.268184766173363 395.10490735061467 157.14940773043782 2913.3299003094435 119.06056112097576 4497.117036126554 162.5085866600275 4947.7362568592653 7100.2579403966665 3844.4254109784961 5379.9270855383947 175.92820644378662 3916.2050689567113 397.73757312796079
leaf_count=80424797 5870 65743 6654 1692 18303 16018 13228 2674 1462 2870 1037 896 15746 528 2891 2602 28994 294 12520 316 290 11643 1564 5984 76425 3692 8370 118 539 3736 3467 10398 734 483 12976 193 2157 95 2413 1952 3822 4169 3951 1247 287 33060 15676 102 10473 191 1468 964 3725 470 6310 293 7208 10398 5267 8332 130 6698 643
internal_value=3.4047e-06 0.0845152 0.078024 0.0464686 0.085771 0.0765945 0.0281768 -0.0558181 0.0607256 0.0427646 0.0640603 0.0315069 0.0689859 0.0350633 0.0251542 0.0923751 0.0999699 0.0890364 0.0896046 0.0848774 -0.0271853 0.0649224 0.0339888 0.0263491 0.024035 0.0738441 0.0853168 0.0978307 0.0351897 0.082372 0.0901934 0.0764803 0.0475577 0.0429226 0.0478464 0.0504316 -0.00863495 -0.0445197 0.0838797 0.0415977 0.0682965 0.0623704 0.0673055 0.0473293 0.100699 0.0258584 0.0585825 -0.0729337 0.0911403 0.024809 0.0356137 0.0831326 0.0682225 -0.0149647 0.0854244 0.0757034 0.0813545 0.0961071 0.0923887 0.0886938 0.150466 0.0779025 0.0697308
internal_weight=361124 201356 155087 30575.3 124512 52130.6 13398.3 508.315 17177 5419.61 20757.5 12889.9 11757.4 233.813 10447.2 72380.9 22064 50316.8 49873.8 31373.1 121.493 20621.9 1437.44 10369 9974.02 10319.9 31251.6 5926.41 302.685 25325.2 10853.9 14471.3 5234.88 4764.19 4349.15 4292.99 415.04 313.44 395.015 1114.98 17832.8 11049.2 8911.31 1077.63 21998.6 9860.17 2442.77 113.86 10807 443 419.732 25025.6 3352.05 276.21 21673.6 3075.84 17176.5 24848.2 17748 13903.5 385.68 6783.68 4313.94
internal_count=80897248 472451 406708 207394 199314 91558 155467 16430 51927 20970 37833 139037 30957 3202 122465 107756 32013 75743 73790 53725 606 36796 8320 119574 115469 22637 53119 9027 657 44092 17676 26416 18100 17366 14631 13169 2735 2252 4105 6891 30926 19763 15594 4939 29411 109485 16572 1666 13940 1953 1762 37273 5452 1434 31821 4018 25511 36517 26119 20852 417 11163 7341
is_linear=0
shrinkage=0.104975


Tree=13
num_leaves=64
num_cat=0
split_feature=0 23 10 23 10 23 13 9 9 22 23 22 22 16 18 10 20 20 23 24 16 20 20 19 20 19 13 10 7 10 20 20 24 20 10 13 7 20 25 10 25 25 3 13 25 10 4 10 13 9 18 24 10 22 3 23 25 20 9 18 13 10 18
split_gain=250338 4421.6 1035.31 1105.97 858.583 2664.05 637.982 306.703 259.585 235.901 238.323 219.266 161.338 847.717 220.715 160.225 147.151 138.347 137.852 137.542 132.234 127.914 154.78 134.903 175.486 124.229 124.067 163.065 119.935 356.634 128.528 537.655 117.221 110.868 107.009 100.614 121.549 197.131 196.032 140.901 379.246 235.108 127.469 134.447 123.077 107.403 107.372 179.38 100.438 187.264 1631.93 508.759 98.5458 97.316 117.629 96.93 95.5713 93.0774 92.1118 1083.52 678.594 821.796 431.799
threshold=1.0000000180025095e-35 2.5000000000000004 396.50000000000006 4.5000000000000009 396.50000000000006 1.5000000000000002 0.72029361150651183 1.0000000180025095e-35 1.0000000180025095e-35 1.0000000180025095e-35 3.5000000000000004 1.0000000180025095e-35 1.0000000180025095e-35 1.0000000180025095e-35 1.0000000180025095e-35 19945.000000000004 0.06458333333333334 0.06458333333333334 5.5000000000000009 4.5000000000000009 1.0000000180025095e-35 0.79655172413793118 0.35000000000000003 4.5000000000000009 0.86811594202898557 1.5000000000000002 0.036158030346407105 157.50000000000003 1.0000000180025095e-35 161.00000000000003 0.97008928571428588 0.29100529100529104 21.500000000000004 0.94590643274853814 921.50000000000011 0.95210273012140767 1.0000000180025095e-35 0.27619047619047626 0.14907407407407411 5437.0000000000009 0.6515151515151516 0.5634920634920636 1.0000000180025095e-35 0.72029361150651183 0.59166666666666679 1137.0000000000002 1.0000000180025095e-35 31094.000000000004 0.72029361150651183 1.0000000180025095e-35 1.0000000180025095e-35 5.5000000000000009 28.500000000000004 1.0000000180025095e-35 1.0000000180025095e-35 3.5000000000000004 0.14039408866995076 0.79655172413793118 1.0000000180025095e-35 1.0000000180025095e-35 0.37533898753884887 12.500000000000002 1.0000000180025095e-35
decision_type=2 2 2 2 2 2 2 2 2 2 2 2 2 2 2 2 2 2 2 2 2 2 2 2 2 2 2 2 2 2 2 2 2 2 2 2 2 2 2 2 2 2 2 2 2 2 2 2 2 2 2 2 2 2 2 2 2 2 2 2 2 2 2
left_child=-1 4 3 9 12 -6 7 19 11 20 48 -8 13 14 16 -10 -2 -12 35 -7 26 22 -17 -23 -25 53 56 -28 29 -18 31 -30 -20 -21 57 36 37 42 -38 41 -41 55 43 44 -4 -43 -37 -48 49 -11 51 -51 -14 54 -5 -40 -3 -9 62 60 61 -60 -55
right_child=1 2 18 25 5 6 8 34 15 10 17 -13 52 -15 -16 21 28 -19 32 33 -22 23 -24 24 -26 -27 27 -29 30 -31 -32 -33 -34 -35 -36 46 38 -39 39 40 -42 45 -44 -45 -46 -47 47 -49 -50 50 -52 -53 -54 58 -56 -57 -58 -59 59 -61 -62 -63 -64
leaf_value=-0.10093410936160888 0.0012761498540386127 -0.13487189469938374 -0.0075236739339723012 -0.062184589750261456 0.10069889470505392 0.034992772605555375 0.028817238766356817 0.044224337443795093 -0.1221351725103839 0.078314156514666181 0.080065763866881481 0.080848371053011403 0.092196617797180205 -0.1821757057503039 -0.12876951692867894 0.021701521909478525 0.096690963352835585 0.052592071197098494 -0.070290830594631579 0.075546117477789651 -0.11115689289064347 0.065851846858869204 -0.079987300748453533 -0.1184632613388029 0.015405166117197212 0.057949525014935444 0.067452663867797621 -0.1103848489768966 0.098383488185105464 -0.15526515017564685 0.099014919125872666 -0.17230658364157839 0.03206269782799126 -0.048052686470714395 0.086646020889498979 0.021060932451680774 0.074933449527715038 0.05405381760408029 -0.1358210618190332 0.015915916904348626 -0.10263271857895986 -0.10584656596345066 -0.13752617877250695 -0.088229297045121113 0.062358847365773365 0.068238475216237576 0.037093923565202955 -0.11541893372541666 0.083094217175949836 -0.0081242083274050587 0.08283314064770203 -0.17728763346082743 0.1006954585447334 0.045600395545936638 0.048061370775635236 -0.0012136721483697161 0.028735667655304768 -0.12594060569900883 0.11159902250254185 0.047612302741457904 -0.18177137343620792 -0.15555222430352419 -0.1865777993413853
leaf_weight=137715.34582031157 189.75468781590462 32.211325469426811 507.59839799697511 234.73341611720389 22846.083852827549 3099.2644139789045 4651.7350715184584 256.81536061316729 104.30557727441192 10229.292437287048 2434.5383997876197 973.00740097463131 20554.98830085434 114.89607535302639 43.415528494864702 263.65574768930674 6053.1396670248359 7542.2363291010261 246.04507532448042 1650.5171308126301 48.717038467526436 426.97565345838666 333.10966782737523 108.80436991900206 694.03517779055983 2001.1449081480969 2063.2077716798522 48.792418727884069 201.8147266805172 52.648548249155283 242.95804047584534 108.58747504651546 196.74866273114458 72.639822006225586 4689.381794212386 1379.6922747798963 534.02994212275371 4515.5674301832914 83.803963200189173 1209.6964423805475 340.22750765969977 33.067072029225528 52.682939991587773 107.92459858697839 489.15497487504035 803.63493895437568 141.11007043533027 159.48919522919459 14789.832630958408 396.52791413664818 3209.448672786355 315.38061736524105 45383.936848279089 4850.3613286388572 157.05908285453916 134.35171247087419 1335.0632034488954 32.168045742437243 269.82182643096894 3214.6502165859565 361.53304189629853 192.27910865237936 76.771003160625696
leaf_count=80424797 342 595 4454 6707 38508 8786 47957 1102 3275 14484 3806 2597 32403 600 892 2136 10220 11871 5389 3873 2205 1931 15156 3408 8731 4747 5822 3968 297 581 388 630 2715 160 8599 27170 1380 20552 1451 7020 4444 1561 891 5179 1905 2292 1201 10306 22422 966 4494 1499 73051 7742 916 1294 7013 479 487 3952 2222 703 524
internal_value=8.70857e-06 0.0781565 0.0573631 0.0630491 0.0900508 0.0783221 0.0488498 0.0656357 0.0270506 0.0704467 0.0726892 0.0378737 0.0965097 0.0819405 0.0864559 -0.00449197 0.0879014 0.0593283 0.0293716 0.0476351 0.0456496 0.00250126 -0.0352291 0.0208697 -0.00328006 0.0353887 0.0479818 0.0631249 0.0903674 0.094409 0.0453823 0.00261159 -0.0249426 0.0702275 0.0830155 0.0316732 0.0359366 0.0446498 0.0201487 0.00881011 -0.0103222 0.0368483 0.00789364 0.0153431 0.0268935 0.0608446 0.00928008 -0.044319 0.0772856 0.0711908 0.0525422 -0.0836889 0.0980524 0.0305391 -0.0179473 -0.0545736 0.0244641 0.0236895 0.0326657 0.0214624 -0.0803136 2.23998e-05 0.0418207
internal_weight=315602 177887 64738.4 53803.6 113149 40202.5 17356.4 9800.79 7555.63 42445.2 38917.3 5624.74 72946.1 7007.21 6892.32 1930.89 6848.9 9976.77 10934.8 4822.42 3527.99 1826.58 596.765 1229.82 802.84 11358.4 3479.27 2112 6659.15 6105.79 553.36 310.402 442.794 1723.16 4978.37 10492 8811.74 5672.93 3138.81 2604.78 1549.92 1054.86 1157.36 1104.68 996.753 836.702 1680.29 300.599 28940.5 14150.6 3921.36 711.909 65938.9 9357.21 391.792 218.156 1367.27 288.983 8965.42 4038.28 823.634 462.101 4927.13
internal_count=80897248 472451 206349 107145 266102 146698 108190 22999 85191 79145 59542 50554 119404 13950 13350 34637 12458 15677 99204 12819 19603 31362 17292 14070 12139 28000 17398 9790 12116 10801 1315 927 8104 4033 10180 91100 52423 32981 19442 18062 11464 6598 12429 11538 6359 3853 38677 11507 43865 21443 6959 2465 105454 23253 7623 2745 7608 1581 15630 7364 3412 1190 8266
is_linear=0
shrinkage=0.0997261


Tree=14
num_leaves=64
num_cat=0
split_feature=0 23 10 23 10 23 14 22 3 23 20 20 25 25 22 20 18 2 13 1 10 25 22 3 14 19 20 20 20 20 22 23 19 19 10 19 4 5 4 18 25 20 10 4 10 10 8 20 10 10 10 20 14 20 20 10 18 10 5 20 13 10 2
split_gain=212184 4250.84 925.02 899.004 887.899 2595.33 574.639 266.113 206.17 192.78 188.047 183.718 168.455 148.171 131.639 244.362 163.901 123.275 120.259 110.555 108.339 107.838 105.934 240.804 121.987 98.2333 98.2044 96.5853 142.035 96.4101 95.4602 117.375 94.8736 133.101 545.519 150.733 92.1144 88.2451 107.566 86.3644 82.5133 180.549 73.8818 91.91 110.646 797.678 102.723 76.3893 72.505 70.2946 339.697 176.524 187.526 68.7519 118.322 68.3085 97.5415 76.1973 72.1514 68.0895 66.6851 62.0601 100.54
threshold=1.0000000180025095e-35 2.5000000000000004 396.50000000000006 3.5000000000000004 396.50000000000006 1.5000000000000002 0.72029361150651183 1.0000000180025095e-35 1.0000000180025095e-35 4.5000000000000009 0.27619047619047626 0.16954022988505749 0.6515151515151516 0.25833333333333336 1.0000000180025095e-35 0.06458333333333334 1.0000000180025095e-35 1.0000000180025095e-35 0.95210273012140767 1.0000000180025095e-35 28.500000000000004 0.19615384615384621 1.0000000180025095e-35 1.0000000180025095e-35 0.49449827826029863 1.5000000000000002 0.042572463768115944 0.16954022988505749 0.25833333333333336 0.46886446886446892 1.0000000180025095e-35 5.5000000000000009 5.5000000000000009 4.5000000000000009 5437.0000000000009 3.5000000000000004 1.0000000180025095e-35 1.0000000180025095e-35 1.0000000180025095e-35 1.0000000180025095e-35 0.93750000000000011 0.97008928571428588 9.5000000000000018 1.0000000180025095e-35 97.500000000000014 64.500000000000014 1.0000000180025095e-35 0.21111111111111114 80.000000000000014 118.00000000000001 18.500000000000004 0.97008928571428588 0.7728308871093853 0.13961038961038963 0.29100529100529104 1.5000000000000002 1.0000000180025095e-35 3.5000000000000004 1.0000000180025095e-35 0.029857397504456332 0.72029361150651183 141.50000000000003 1.0000000180025095e-35
decision_type=2 2 2 2 2 2 2 2 2 2 2 2 2 2 2 2 2 2 2 2 2 2 2 2 2 2 2 2 2 2 2 2 2 2 2 2 2 2 2 2 2 2 2 2 2 2 2 2 2 2 2 2 2 2 2 2 2 2 2 2 2 2 2
left_child=-1 4 3 7 14 -6 12 8 10 13 11 19 -7 59 15 17 49 -2 30 48 40 -9 23 -11 26 55 39 -20 -29 -14 32 -32 33 35 36 37 -35 -4 -39 -24 -16 -42 -23 46 45 -45 47 -44 -3 50 -17 52 -52 -8 -55 -15 57 -57 -58 -5 -25 -51 -63
right_child=1 2 18 9 5 6 53 21 -10 22 -12 -13 29 25 20 16 -18 -19 27 -21 -22 42 24 60 -26 -27 -28 28 -30 -31 31 -33 -34 34 -36 -37 -38 38 -40 -41 41 -43 43 44 -46 -47 -48 -49 -50 61 51 -53 -54 54 -56 56 58 -59 -60 -61 -62 62 -64
leaf_value=-0.095704561635609767 0.039658025569745445 0.036515460545351361 0.028932722233585811 0.041765568828148615 0.095488539970782479 0.069743095455256893 0.070356177624113211 0.085492241281528145 0.060193029231105921 -0.066001713317684063 0.042939828049800413 -0.13401866524683881 0.077519323576539303 0.0073161558823045042 0.093513489325909652 0.089905558017381634 -0.11413629378911215 -0.099093642720847142 -0.1025101129675357 -0.13190040687772758 0.095229571620530001 0.059524465117103999 -0.049568157603147672 0.072164196525841981 0.043192262205588465 0.072657144704921447 0.0281376467824773 0.058341810469796022 -0.0074005683092253794 0.037660171451067724 0.015270867903385658 -0.099935617120230025 0.052032102333755277 -0.03224441111562585 -0.17122449929298567 0.077761188060110648 0.099835900281755499 -0.11749862881513207 0.029045640581944355 0.025313987657742638 0.06936699790234406 0.095424403271422986 0.07154416357318473 0.063849805421535066 0.069240477731420474 -0.17873474179179755 0.0025502647244268809 0.087866403719308109 -0.11505974185960792 0.094155366144391628 0.003396550914724095 0.09280931285695794 -0.16152407821037071 -0.11391648601691738 0.021459519912199215 0.076032241373411316 0.053098901898881057 0.02902209969694252 0.11027155235549445 0.078599305994422927 -0.094622746662292354 0.064838741599451674 -0.12720946599433669
leaf_weight=118627.91263984231 133.9319733530283 263.85765977622941 3851.990386859572 592.11259274813347 19317.295713365078 5406.8666591895744 251.94712517410517 4095.8166776522994 1713.0387690104544 289.60326491802698 566.97689189761877 125.18706258479506 650.92140883952379 520.41933028958738 7899.1231600996107 1768.2825907617807 34.695907663553953 94.194297552108765 69.835124380362686 45.371984405443072 38773.804773684591 6066.9937269575894 298.21975544909947 243.15476916357875 6646.8774949838407 976.40082760155201 2921.7465788866393 380.72287096700165 1257.116289973259 3419.0949601046741 1383.9535099655623 79.849324368871748 2133.006376205245 63.272895876318216 139.58358208462596 573.81979793403298 165.54845505952835 79.615639613941312 93.82410045247525 250.78746130689979 5814.6199191957712 4162.4939708709717 7813.6352070309222 961.85401652008295 2737.4876433983445 134.93269807100296 168.33132541924715 4052.9954138807952 27.4035121826455 3274.0910047590733 349.97802174091339 149.16254711151123 70.764827243983746 54.226139112375677 6210.4396158829331 340.50453495234251 1919.7952989862533 3236.0466825566255 222.32808254938573 2136.7368820006959 19.827581473626196 150.42440761439502 24.894898101687431
